-6.123233995736766036e-17,-6.120151206942072349e-17,-6.110905944664992393e-17,-6.095507518100949183e-17,-6.073971432160226819e-17,-6.046319371855828924e-17,-6.012579180468521227e-17,-5.972784831510993560e-17,-5.926976394519424388e-17,-5.875199994706849621e-17,-5.817507766518985444e-17,-5.753957801139251348e-17,-5.684614087995888953e-17,-5.609546450330017008e-17,-5.528830474889553225e-17,-5.442547435819768081e-17,-5.350784212827102878e-17,-5.253633203698676932e-17,-5.151192231265543576e-17,-5.043564444903395003e-17,-4.930858216669878237e-17,-4.813187032183129502e-17,-4.690669376351365391e-17,-4.563428614068633034e-17,-4.431592865996813485e-17,-4.295294879558976253e-17,-4.154671895273979553e-17,-4.009865508566898418e-17,-3.861021527194435117e-17,-3.708289824428867304e-17,-3.551824188148367670e-17,-3.391782165985646961e-17,-3.228324906690841182e-17,-3.061616997868381785e-17,-2.891826300251230550e-17,-2.719123778679343892e-17,-2.543683329952581204e-17,-2.365681607731358282e-17,-2.185297844661394423e-17,-2.002713671901620960e-17,-1.818112936237012774e-17,-1.631681514960446594e-17,-1.443607128710036752e-17,-1.254079152450350407e-17,-1.063288424787885803e-17,-8.714270558127589889e-18,-6.786882336601382319e-18,-4.852660299861586843e-18,-2.913552045542229255e-18,-9.715100912842561826e-19,9.715100912842696641e-19,2.913552045542242737e-18,4.852660299861599939e-18,6.786882336601382319e-18,8.714270558127602215e-18,1.063288424787885803e-17,1.254079152450351794e-17,1.443607128710036752e-17,1.631681514960448135e-17,1.818112936237012774e-17,2.002713671901622193e-17,2.185297844661394423e-17,2.365681607731359823e-17,2.543683329952581204e-17,2.719123778679345124e-17,2.891826300251230550e-17,3.061616997868384251e-17,3.228324906690843031e-17,3.391782165985646961e-17,3.551824188148367670e-17,3.708289824428868537e-17,3.861021527194436350e-17,4.009865508566899651e-17,4.154671895273979553e-17,4.295294879558977486e-17,4.431592865996814101e-17,4.563428614068633034e-17,4.690669376351364774e-17,4.813187032183130118e-17,4.930858216669878853e-17,5.043564444903395003e-17,5.151192231265544809e-17,5.253633203698678165e-17,5.350784212827102878e-17,5.442547435819768081e-17,5.528830474889553842e-17,5.609546450330017008e-17,5.684614087995888953e-17,5.753957801139251348e-17,5.817507766518985444e-17,5.875199994706849621e-17,5.926976394519424388e-17,5.972784831510993560e-17,6.012579180468521227e-17,6.046319371855830156e-17,6.073971432160226819e-17,6.095507518100949183e-17,6.110905944664992393e-17,6.120151206942072349e-17,6.123233995736766036e-17
-3.172793349806781599e-02,-3.171195982828241972e-02,-3.166405490305766735e-02,-3.158426695859253841e-02,-3.147267633458378233e-02,-3.132939539333062795e-02,-3.115456840659552515e-02,-3.094837141033465744e-02,-3.071101202744469169e-02,-3.044272925870410845e-02,-3.014379324211967359e-02,-2.981450498092035745e-02,-2.945519604047262818e-02,-2.906622821442219479e-02,-2.864799316039850011e-02,-2.820091200564868450e-02,-2.772543492299812257e-02,-2.722204067756458720e-02,-2.669123614468232528e-02,-2.613355579952157670e-02,-2.554956117891736891e-02,-2.493984031594956297e-02,-2.430500714784332786e-02,-2.364570089778645148e-02,-2.296258543128574386e-02,-2.225634858771074684e-02,-2.152770148769781247e-02,-2.077737781711188475e-02,-2.000613308828702239e-02,-1.921474387928954336e-02,-1.840400705196971326e-02,-1.757473894958942393e-02,-1.672777457483372657e-02,-1.586396674903390105e-02,-1.498418525344868794e-02,-1.408931595346823995e-02,-1.318025990662282862e-02,-1.225793245529423377e-02,-1.132326230504360383e-02,-1.037719058948363346e-02,-9.420669922636841498e-03,-8.454663439733939648e-03,-7.480143827418366323e-03,-6.498092344333216037e-03,-5.509497833077031323e-03,-4.515355724523064350e-03,-3.516667035504825005e-03,-2.514437360876925574e-03,-1.509675860966350550e-03,-5.033942454335330876e-04,5.033942454335401349e-04,1.509675860966357705e-03,2.514437360876932512e-03,3.516667035504825005e-03,4.515355724523072156e-03,5.509497833077031323e-03,6.498092344333222976e-03,7.480143827418366323e-03,8.454663439733946587e-03,9.420669922636841498e-03,1.037719058948364040e-02,1.132326230504360383e-02,1.225793245529424071e-02,1.318025990662282862e-02,1.408931595346824689e-02,1.498418525344868794e-02,1.586396674903391493e-02,1.672777457483373351e-02,1.757473894958942393e-02,1.840400705196971326e-02,1.921474387928955030e-02,2.000613308828702933e-02,2.077737781711188822e-02,2.152770148769781247e-02,2.225634858771075378e-02,2.296258543128574733e-02,2.364570089778645148e-02,2.430500714784332439e-02,2.493984031594956643e-02,2.554956117891737238e-02,2.613355579952157670e-02,2.669123614468233222e-02,2.722204067756459414e-02,2.772543492299812257e-02,2.820091200564868450e-02,2.864799316039850358e-02,2.906622821442219826e-02,2.945519604047262818e-02,2.981450498092035745e-02,3.014379324211967359e-02,3.044272925870410845e-02,3.071101202744469169e-02,3.094837141033465744e-02,3.115456840659552515e-02,3.132939539333062795e-02,3.147267633458378233e-02,3.158426695859253841e-02,3.166405490305766735e-02,3.171195982828241972e-02,3.172793349806781599e-02
-6.342391965656456188e-02,-6.339198840112521272e-02,-6.329622678687468751e-02,-6.313673123764117212e-02,-6.291366235192290268e-02,-6.262724474117903339e-02,-6.227776680366501477e-02,-6.186558043403994622e-02,-6.139110066903850221e-02,-6.085480526956410507e-02,-6.025723423962421610e-02,-5.959898928259203810e-02,-5.888073319534229549e-02,-5.810318920087087502e-02,-5.726714022007062949e-02,-5.637342808339638328e-02,-5.542295268321303231e-02,-5.441667106768020845e-02,-5.335559647708592451e-02,-5.224079732359947215e-02,-5.107339611547091068e-02,-4.985456832676048861e-02,-4.858554121373580281e-02,-4.726759257912886703e-02,-4.590204948549699709e-02,-4.449028691898335858e-02,-4.303372640482244077e-02,-4.153383457598465445e-02,-3.999212169640124770e-02,-3.841014014025656564e-02,-3.678948282887880422e-02,-3.513178162680329064e-02,-3.343870569862318620e-02,-3.171195982828226706e-02,-2.995328270250201957e-02,-2.816444516007138646e-02,-2.634724840876236443e-02,-2.450352221166631969e-02,-2.263512304477777529e-02,-2.074393222768034645e-02,-1.883185402921749851e-02,-1.690081375005512629e-02,-1.495275578406709757e-02,-1.298964166049533346e-02,-1.101344806885624049e-02,-9.026164868581810358e-03,-7.029793085399966071e-03,-5.026342896471154738e-03,-3.017831606310437953e-03,-1.006281615532813234e-03,1.006281615532827328e-03,3.017831606310452264e-03,5.026342896471168616e-03,7.029793085399966071e-03,9.026164868581824235e-03,1.101344806885624049e-02,1.298964166049534734e-02,1.495275578406709757e-02,1.690081375005514017e-02,1.883185402921749851e-02,2.074393222768036033e-02,2.263512304477777529e-02,2.450352221166633357e-02,2.634724840876236443e-02,2.816444516007140034e-02,2.995328270250201957e-02,3.171195982828229482e-02,3.343870569862320008e-02,3.513178162680329064e-02,3.678948282887880422e-02,3.841014014025657952e-02,3.999212169640126158e-02,4.153383457598466139e-02,4.303372640482244077e-02,4.449028691898337246e-02,4.590204948549700403e-02,4.726759257912886703e-02,4.858554121373579587e-02,4.985456832676049554e-02,5.107339611547091762e-02,5.224079732359947215e-02,5.335559647708593839e-02,5.441667106768022233e-02,5.542295268321303231e-02,5.637342808339638328e-02,5.726714022007063642e-02,5.810318920087088196e-02,5.888073319534229549e-02,5.959898928259203810e-02,6.025723423962421610e-02,6.085480526956410507e-02,6.139110066903850221e-02,6.186558043403994622e-02,6.227776680366501477e-02,6.262724474117903339e-02,6.291366235192290268e-02,6.313673123764117212e-02,6.329622678687468751e-02,6.339198840112521272e-02,6.342391965656456188e-02
-9.505604330418281067e-02,-9.500818661515703090e-02,-9.486466473570892566e-02,-9.462562218020524607e-02,-9.429129964423663135e-02,-9.386203376225749073e-02,-9.333825676862365917e-02,-9.272049606236906771e-02,-9.200937367615955043e-02,-9.120560564995879027e-02,-9.031000131003667775e-02,-8.932346245404633456e-02,-8.824698244299047922e-02,-8.708164520099091754e-02,-8.582862412386893514e-02,-8.448918089763515771e-02,-8.306466422807864958e-02,-8.155650848273454656e-02,-7.996623224659753226e-02,-7.829543679303543890e-02,-7.654580447144274102e-02,-7.471909701325732400e-02,-7.281715375804617696e-02,-7.084188980144651149e-02,-6.879529406682663439e-02,-6.667942730260884021e-02,-6.449642000727034974e-02,-6.224847028411194944e-02,-5.993784162795432607e-02,-5.756686064599064040e-02,-5.513791471509026099e-02,-5.265344957791268793e-02,-5.011596688025194563e-02,-4.752802165209139146e-02,-4.489221973490507833e-02,-4.221121515779622385e-02,-3.948770746511497814e-02,-3.672443899824597707e-02,-3.392419213430315078e-02,-3.108978648451169238e-02,-2.822407605509870757e-02,-2.532994637355069634e-02,-2.241031158313215588e-02,-1.946811150859014891e-02,-1.650630869600016107e-02,-1.352788542973315869e-02,-1.053584072954817652e-02,-7.533187330833496231e-03,-4.522948651037612434e-03,-1.508155745344095210e-03,1.508155745344116243e-03,4.522948651037633251e-03,7.533187330833517048e-03,1.053584072954817652e-02,1.352788542973317951e-02,1.650630869600016107e-02,1.946811150859016973e-02,2.241031158313215588e-02,2.532994637355071715e-02,2.822407605509870757e-02,3.108978648451171320e-02,3.392419213430315078e-02,3.672443899824599789e-02,3.948770746511497814e-02,4.221121515779624467e-02,4.489221973490507833e-02,4.752802165209142615e-02,5.011596688025196644e-02,5.265344957791268793e-02,5.513791471509026099e-02,5.756686064599066122e-02,5.993784162795434689e-02,6.224847028411195637e-02,6.449642000727034974e-02,6.667942730260885409e-02,6.879529406682664827e-02,7.084188980144651149e-02,7.281715375804616308e-02,7.471909701325733788e-02,7.654580447144275490e-02,7.829543679303543890e-02,7.996623224659754614e-02,8.155650848273456044e-02,8.306466422807864958e-02,8.448918089763515771e-02,8.582862412386894901e-02,8.708164520099093142e-02,8.824698244299047922e-02,8.932346245404633456e-02,9.031000131003667775e-02,9.120560564995879027e-02,9.200937367615955043e-02,9.272049606236906771e-02,9.333825676862365917e-02,9.386203376225749073e-02,9.429129964423663135e-02,9.462562218020524607e-02,9.486466473570892566e-02,9.500818661515703090e-02,9.505604330418281067e-02
-1.265924535737492918e-01,-1.265287196387663016e-01,-1.263375820084873813e-01,-1.260192331423041490e-01,-1.255739935905396398e-01,-1.250023116716810490e-01,-1.243047630209613286e-01,-1.234820500107430552e-01,-1.225350010432891407e-01,-1.214645697166319149e-01,-1.202718338643807283e-01,-1.189579944704348968e-01,-1.175243744596947554e-01,-1.159724173659883451e-01,-1.143036858785552584e-01,-1.125198602685510280e-01,-1.106227366971564846e-01,-1.086142254069957791e-01,-1.064963487986838736e-01,-1.042712393944406346e-01,-1.019411376908216649e-01,-9.950838990272828366e-02,-9.697544560096785227e-02,-9.434485524574379167e-02,-9.161926761855818113e-02,-8.880142715511346596e-02,-8.589417118189819622e-02,-8.290042705923987565e-02,-7.982320923370118948e-02,-7.666561620278788958e-02,-7.343082739502439227e-02,-7.012209996853881189e-02,-6.674276553138078216e-02,-6.329622678687461812e-02,-5.978595410738551247e-02,-5.621548203994854859e-02,-5.258840574727975670e-02,-4.890837738775170862e-02,-4.517910243797983866e-02,-4.140433596172141822e-02,-3.758787882884485204e-02,-3.373357388817565389e-02,-2.984530209807371992e-02,-2.592697861863691930e-02,-2.198254886946705150e-02,-1.801598455696647866e-02,-1.403127967516668365e-02,-1.003244648411461860e-02,-6.023511469867120528e-03,-2.008511290160700305e-03,2.008511290160728494e-03,6.023511469867149151e-03,1.003244648411464636e-02,1.403127967516668365e-02,1.801598455696650641e-02,2.198254886946705150e-02,2.592697861863694705e-02,2.984530209807371992e-02,3.373357388817568858e-02,3.758787882884485204e-02,4.140433596172144598e-02,4.517910243797983866e-02,4.890837738775173638e-02,5.258840574727975670e-02,5.621548203994858328e-02,5.978595410738551247e-02,6.329622678687467363e-02,6.674276553138080992e-02,7.012209996853881189e-02,7.343082739502439227e-02,7.666561620278791733e-02,7.982320923370121724e-02,8.290042705923988953e-02,8.589417118189819622e-02,8.880142715511349372e-02,9.161926761855819501e-02,9.434485524574379167e-02,9.697544560096783839e-02,9.950838990272829754e-02,1.019411376908216788e-01,1.042712393944406346e-01,1.064963487986839014e-01,1.086142254069958069e-01,1.106227366971564846e-01,1.125198602685510280e-01,1.143036858785552723e-01,1.159724173659883589e-01,1.175243744596947554e-01,1.189579944704348968e-01,1.202718338643807283e-01,1.214645697166319149e-01,1.225350010432891407e-01,1.234820500107430552e-01,1.243047630209613286e-01,1.250023116716810490e-01,1.255739935905396398e-01,1.260192331423041490e-01,1.263375820084873813e-01,1.265287196387663016e-01,1.265924535737492918e-01
-1.580013959733500284e-01,-1.579218489670798642e-01,-1.576832880453617747e-01,-1.572859534188219832e-01,-1.567302451697488164e-01,-1.560167228492436720e-01,-1.551461049138006532e-01,-1.541192680018816374e-01,-1.529372460512156418e-01,-1.516012292577113008e-01,-1.501125628770303699e-01,-1.484727458700293434e-01,-1.466834293934329847e-01,-1.447464151372593044e-01,-1.426636535106706183e-01,-1.404372416780767796e-01,-1.380694214474683379e-01,-1.355625770131060059e-01,-1.329192325548390619e-01,-1.301420496964703077e-01,-1.272338248257263438e-01,-1.241974862785323874e-01,-1.210360913904260510e-01,-1.177528234180797023e-01,-1.143509883340307759e-01,-1.108340114978476898e-01,-1.072054342070831445e-01,-1.034689101314875959e-01,-9.962820163407358487e-02,-9.568717598273508707e-02,-9.164980145623656538e-02,-8.752014334849261834e-02,-8.330235987516161622e-02,-7.900069798667498644e-02,-7.461948909191823409e-02,-7.016314469686911470e-02,-6.563615196258540396e-02,-6.104306918701368767e-02,-5.638852121517008709e-02,-5.167719478231303648e-02,-4.691383379479846516e-02,-4.210323455336790338e-02,-3.725024092368050405e-02,-3.235973945895063986e-02,-2.743665447960329934e-02,-2.248594311490058339e-02,-1.751259031153297105e-02,-1.252160381420032789e-02,-7.518009123237688260e-03,-2.506844434362329350e-03,2.506844434362364479e-03,7.518009123237722954e-03,1.252160381420036259e-02,1.751259031153297105e-02,2.248594311490061809e-02,2.743665447960329934e-02,3.235973945895067455e-02,3.725024092368050405e-02,4.210323455336793808e-02,4.691383379479846516e-02,5.167719478231307118e-02,5.638852121517008709e-02,6.104306918701372237e-02,6.563615196258540396e-02,7.016314469686915634e-02,7.461948909191823409e-02,7.900069798667505583e-02,8.330235987516164398e-02,8.752014334849261834e-02,9.164980145623656538e-02,9.568717598273512870e-02,9.962820163407361262e-02,1.034689101314876097e-01,1.072054342070831445e-01,1.108340114978477314e-01,1.143509883340307898e-01,1.177528234180797023e-01,1.210360913904260372e-01,1.241974862785324152e-01,1.272338248257263438e-01,1.301420496964703077e-01,1.329192325548390896e-01,1.355625770131060337e-01,1.380694214474683379e-01,1.404372416780767796e-01,1.426636535106706460e-01,1.447464151372593322e-01,1.466834293934329847e-01,1.484727458700293434e-01,1.501125628770303699e-01,1.516012292577113008e-01,1.529372460512156418e-01,1.541192680018816374e-01,1.551461049138006532e-01,1.560167228492436997e-01,1.567302451697488164e-01,1.572859534188219832e-01,1.576832880453617747e-01,1.579218489670798642e-01,1.580013959733500284e-01
-1.892512443604102146e-01,-1.891559643799452517e-01,-1.888702203774142441e-01,-1.883943000728061923e-01,-1.877286826775258211e-01,-1.868740384118681985e-01,-1.858312278301637588e-01,-1.846013009542730177e-01,-1.831854962163035616e-01,-1.815852392116138747e-01,-1.798021412633597216e-01,-1.778379978000282358e-01,-1.756947865475936843e-01,-1.733746655381150636e-01,-1.708799709367806452e-01,-1.682132146895877756e-01,-1.653770819940261205e-01,-1.623744285953114264e-01,-1.592082779108922319e-01,-1.558818179861246045e-01,-1.523983982841808082e-01,-1.487615263134239585e-01,-1.449748640956440848e-01,-1.410422244787128965e-01,-1.369675672973690583e-01,-1.327549953860003018e-01,-1.284087504474369368e-01,-1.239332087819167150e-01,-1.193328768805213408e-01,-1.146123868875221219e-01,-1.097764919362031882e-01,-1.048300613628592587e-01,-9.977807580378672547e-02,-9.462562218020507954e-02,-8.937788857615852622e-02,-8.404015901455494375e-02,-7.861780813660299017e-02,-7.311629579000365753e-02,-6.754116153134684386e-02,-6.189801904824702300e-02,-5.619255050683606006e-02,-5.043050083030321123e-02,-4.461767191424480250e-02,-3.875991678464680429e-02,-3.286313370438416481e-02,-2.693326023416973275e-02,-2.097626725393423458e-02,-1.499815295065602683e-02,-9.004936778695489877e-03,-3.002653398714655135e-03,3.002653398714697202e-03,9.004936778695531510e-03,1.499815295065606846e-02,2.097626725393423458e-02,2.693326023416977438e-02,3.286313370438416481e-02,3.875991678464684592e-02,4.461767191424480250e-02,5.043050083030325287e-02,5.619255050683606006e-02,6.189801904824706463e-02,6.754116153134684386e-02,7.311629579000369916e-02,7.861780813660299017e-02,8.404015901455498538e-02,8.937788857615852622e-02,9.462562218020514893e-02,9.977807580378676711e-02,1.048300613628592587e-01,1.097764919362031882e-01,1.146123868875221635e-01,1.193328768805213824e-01,1.239332087819167288e-01,1.284087504474369368e-01,1.327549953860003296e-01,1.369675672973690861e-01,1.410422244787128965e-01,1.449748640956440571e-01,1.487615263134239862e-01,1.523983982841808360e-01,1.558818179861246045e-01,1.592082779108922597e-01,1.623744285953114819e-01,1.653770819940261205e-01,1.682132146895877756e-01,1.708799709367806452e-01,1.733746655381150914e-01,1.756947865475936843e-01,1.778379978000282358e-01,1.798021412633597216e-01,1.815852392116138747e-01,1.831854962163035616e-01,1.846013009542730177e-01,1.858312278301637588e-01,1.868740384118682263e-01,1.877286826775258211e-01,1.883943000728061923e-01,1.888702203774142441e-01,1.891559643799452517e-01,1.892512443604102146e-01
-2.203105327865407526e-01,-2.201996157707448165e-01,-2.198669764073899469e-01,-2.193129496361183040e-01,-2.185380933149258242e-01,-2.175431876584461299e-01,-2.163292344523407851e-01,-2.148974560445859328e-01,-2.132492941146715004e-01,-2.113864082219522045e-01,-2.093106741346119903e-01,-2.070241819409242567e-01,-2.045292339447105368e-01,-2.018283423471152471e-01,-1.989242267170323875e-01,-1.958198112527301804e-01,-1.925182218374310583e-01,-1.890227828918125408e-01,-1.853370140265971633e-01,-1.814646264986029822e-01,-1.774095194738223857e-01,-1.731757761012926999e-01,-1.687676594017109566e-01,-1.641896079749335935e-01,-1.594462315306825750e-01,-1.545423062469584718e-01,-1.494827699608340110e-01,-1.442727171964708621e-01,-1.389173940353653769e-01,-1.334221928339895946e-01,-1.277926467941449540e-01,-1.220344243914974341e-01,-1.161533236679028608e-01,-1.101552663932703346e-01,-1.040462921028419419e-01,-9.783255201589245720e-02,-9.152030284197333609e-02,-8.511590048093620187e-02,-7.862579362308072528e-02,-7.205651725586989520e-02,-6.541468608375188010e-02,-5.870698786771298000e-02,-5.194017669126961556e-02,-4.512106615967833440e-02,-3.825652253921331403e-02,-3.135345784341781600e-02,-2.441882287329285098e-02,-1.745960021842941912e-02,-1.048279722613295988e-02,-3.495438945618508861e-03,3.495438945618557867e-03,1.048279722613300845e-02,1.745960021842946769e-02,2.441882287329285098e-02,3.135345784341786457e-02,3.825652253921331403e-02,4.512106615967838297e-02,5.194017669126961556e-02,5.870698786771302857e-02,6.541468608375188010e-02,7.205651725586995071e-02,7.862579362308072528e-02,8.511590048093624350e-02,9.152030284197333609e-02,9.783255201589249883e-02,1.040462921028419419e-01,1.101552663932704318e-01,1.161533236679029163e-01,1.220344243914974341e-01,1.277926467941449540e-01,1.334221928339896224e-01,1.389173940353654324e-01,1.442727171964708621e-01,1.494827699608340110e-01,1.545423062469584996e-01,1.594462315306826028e-01,1.641896079749335935e-01,1.687676594017109288e-01,1.731757761012927277e-01,1.774095194738224135e-01,1.814646264986029822e-01,1.853370140265972188e-01,1.890227828918125685e-01,1.925182218374310583e-01,1.958198112527301804e-01,1.989242267170324152e-01,2.018283423471152749e-01,2.045292339447105368e-01,2.070241819409242567e-01,2.093106741346119903e-01,2.113864082219522045e-01,2.132492941146715004e-01,2.148974560445859328e-01,2.163292344523407851e-01,2.175431876584461577e-01,2.185380933149258242e-01,2.193129496361183040e-01,2.198669764073899469e-01,2.201996157707448165e-01,2.203105327865407526e-01
-2.511479871810792242e-01,-2.510215448139851979e-01,-2.506423450294487099e-01,-2.500107696495093568e-01,-2.491274546170384185e-01,-2.479932893553981887e-01,-2.466094158728680819e-01,-2.449772276127390458e-01,-2.430983680502343536e-01,-2.409747290376693662e-01,-2.386084488995165731e-01,-2.360019102792940415e-01,-2.331577377404455975e-01,-2.300787951236276663e-01,-2.267681826630645603e-01,-2.232292338648755314e-01,-2.194655121505164064e-01,-2.154808072687166010e-01,-2.112791314795230690e-01,-2.068647155142948058e-01,-2.022420043157146519e-01,-1.974156525621092451e-01,-1.923905199805820698e-01,-1.871716664536804964e-01,-1.817643469245228405e-01,-1.761740061055161455e-01,-1.704062729959922029e-01,-1.644669552142825619e-01,-1.583620331499389355e-01,-1.520976539419880980e-01,-1.456801252892837018e-01,-1.391159090991884451e-01,-1.324116149809809462e-01,-1.255739935905395566e-01,-1.186099298330042101e-01,-1.115264359302601954e-01,-1.043306443602256134e-01,-9.702980067505027895e-02,-8.963125620545922545e-02,-8.214246065858546442e-02,-7.457095461674680126e-02,-6.692436194471816646e-02,-5.921038211314651190e-02,-5.143678244583602815e-02,-4.361139029871199252e-02,-3.574208517833635940e-02,-2.783679080791301788e-02,-1.990346714876977188e-02,-1.195010238535237565e-02,-3.984704881799793277e-03,3.984704881799848789e-03,1.195010238535243290e-02,1.990346714876982739e-02,2.783679080791301788e-02,3.574208517833641491e-02,4.361139029871199252e-02,5.143678244583608367e-02,5.921038211314651190e-02,6.692436194471822197e-02,7.457095461674680126e-02,8.214246065858551993e-02,8.963125620545922545e-02,9.702980067505033446e-02,1.043306443602256134e-01,1.115264359302602509e-01,1.186099298330042101e-01,1.255739935905396676e-01,1.324116149809810017e-01,1.391159090991884451e-01,1.456801252892837018e-01,1.520976539419881535e-01,1.583620331499389911e-01,1.644669552142825897e-01,1.704062729959922029e-01,1.761740061055162010e-01,1.817643469245228682e-01,1.871716664536804964e-01,1.923905199805820421e-01,1.974156525621092728e-01,2.022420043157146796e-01,2.068647155142948058e-01,2.112791314795231246e-01,2.154808072687166565e-01,2.194655121505164064e-01,2.232292338648755314e-01,2.267681826630645880e-01,2.300787951236276940e-01,2.331577377404455975e-01,2.360019102792940415e-01,2.386084488995165731e-01,2.409747290376693662e-01,2.430983680502343536e-01,2.449772276127390458e-01,2.466094158728680819e-01,2.479932893553982165e-01,2.491274546170384185e-01,2.500107696495093568e-01,2.506423450294487099e-01,2.510215448139851979e-01,2.511479871810792242e-01
-2.817325568414297821e-01,-2.815907164397832285e-01,-2.811653380561047744e-01,-2.804568500103689632e-01,-2.794659656899818878e-01,-2.781936828314605092e-01,-2.766412825157966160e-01,-2.748103278785166692e-01,-2.727026625357371059e-01,-2.703204087277988887e-01,-2.676659651823516395e-01,-2.647420046990380249e-01,-2.615514714582113376e-01,-2.580975780563951050e-01,-2.543838022714709490e-01,-2.504138835608509805e-01,-2.461918192961611851e-01,-2.417218607382270734e-01,-2.370085087564143544e-01,-2.320565092966349330e-01,-2.268708486025817483e-01,-2.214567481950041605e-01,-2.158196596140788959e-01,-2.099652589301714278e-01,-2.038994410285141778e-01,-1.976283136735567103e-01,-1.911581913589647796e-01,-1.844955889494604151e-01,-1.776472151209053663e-01,-1.706199656052331537e-01,-1.634209162470316723e-01,-1.560573158787673109e-01,-1.485365790218252657e-01,-1.408662784207148355e-01,-1.330541374179579628e-01,-1.251080221773373802e-01,-1.170359337633372493e-01,-1.088460000847486647e-01,-1.005464677105551291e-01,-9.214569356633611763e-02,-8.365213651955186180e-02,-7.507434886218031234e-02,-6.642096769928468314e-02,-5.770070625218014226e-02,-4.892234508495915679e-02,-4.009472326320717012e-02,-3.122672945381334969e-02,-2.232729297483599176e-02,-1.340537480443655324e-02,-4.469958557934076981e-03,4.469958557934139431e-03,1.340537480443661569e-02,2.232729297483605421e-02,3.122672945381334969e-02,4.009472326320723257e-02,4.892234508495915679e-02,5.770070625218020471e-02,6.642096769928468314e-02,7.507434886218038173e-02,8.365213651955186180e-02,9.214569356633618702e-02,1.005464677105551291e-01,1.088460000847487202e-01,1.170359337633372493e-01,1.251080221773374634e-01,1.330541374179579628e-01,1.408662784207149465e-01,1.485365790218253212e-01,1.560573158787673109e-01,1.634209162470316723e-01,1.706199656052332370e-01,1.776472151209054218e-01,1.844955889494604706e-01,1.911581913589647796e-01,1.976283136735567658e-01,2.038994410285142056e-01,2.099652589301714278e-01,2.158196596140788681e-01,2.214567481950041883e-01,2.268708486025817761e-01,2.320565092966349330e-01,2.370085087564144100e-01,2.417218607382271567e-01,2.461918192961611851e-01,2.504138835608509805e-01,2.543838022714709490e-01,2.580975780563951605e-01,2.615514714582113376e-01,2.647420046990380249e-01,2.676659651823516395e-01,2.703204087277988887e-01,2.727026625357371059e-01,2.748103278785166692e-01,2.766412825157966160e-01,2.781936828314605648e-01,2.794659656899818878e-01,2.804568500103689632e-01,2.811653380561047744e-01,2.815907164397832285e-01,2.817325568414297821e-01
-3.120334456984871219e-01,-3.118763500835491920e-01,-3.114052214207033709e-01,-3.106205340965771944e-01,-3.095230782247909151e-01,-3.081139588503801208e-01,-3.063945948371090133e-01,-3.043667174387945096e-01,-3.020323685560810656e-01,-2.993938986804192126e-01,-2.964539645273202573e-01,-2.932155263612687968e-01,-2.896818450149873936e-01,-2.858564786060545093e-01,-2.817432789541813865e-01,-2.773463877027564917e-01,-2.726702321485615088e-01,-2.677195207838587998e-01,-2.624992385553387986e-01,-2.570146418447012415e-01,-2.512712531759243029e-01,-2.452748556545513436e-01,-2.390314871445934353e-01,-2.325474341889124941e-01,-2.258292256792051866e-01,-2.188836262819627287e-01,-2.117176296270248115e-01,-2.043384512655875007e-01,-1.967535214047545500e-01,-1.889704774259488573e-01,-1.809971561947167074e-01,-1.728415861696684375e-01,-1.645119793185011725e-01,-1.560167228492435054e-01,-1.473643707650480195e-01,-1.385636352510348779e-01,-1.296233779018604315e-01,-1.205526007988420023e-01,-1.113604374456255847e-01,-1.020561435715214155e-01,-9.264908781176967034e-02,-8.314874227411826746e-02,-7.356467300121398434e-02,-6.390653033840772157e-02,-5.418403921667536149e-02,-4.440698936043607076e-02,-3.458522543013019257e-02,-2.472863710948012758e-02,-1.484714914741762197e-02,-4.950711364702681250e-03,4.950711364702750639e-03,1.484714914741769136e-02,2.472863710948019697e-02,3.458522543013019257e-02,4.440698936043614015e-02,5.418403921667536149e-02,6.390653033840779096e-02,7.356467300121398434e-02,8.314874227411833685e-02,9.264908781176967034e-02,1.020561435715214849e-01,1.113604374456255847e-01,1.205526007988420717e-01,1.296233779018604315e-01,1.385636352510349611e-01,1.473643707650480195e-01,1.560167228492436164e-01,1.645119793185012558e-01,1.728415861696684375e-01,1.809971561947167074e-01,1.889704774259489406e-01,1.967535214047546055e-01,2.043384512655875285e-01,2.117176296270248115e-01,2.188836262819627843e-01,2.258292256792052421e-01,2.325474341889124941e-01,2.390314871445934075e-01,2.452748556545513714e-01,2.512712531759243029e-01,2.570146418447012415e-01,2.624992385553388541e-01,2.677195207838589108e-01,2.726702321485615088e-01,2.773463877027564917e-01,2.817432789541813865e-01,2.858564786060545093e-01,2.896818450149873936e-01,2.932155263612687968e-01,2.964539645273202573e-01,2.993938986804192126e-01,3.020323685560810656e-01,3.043667174387945096e-01,3.063945948371090133e-01,3.081139588503801763e-01,3.095230782247909151e-01,3.106205340965771944e-01,3.114052214207033709e-01,3.118763500835491920e-01,3.120334456984871219e-01
-3.420201433256688239e-01,-3.418479506794073752e-01,-3.413315461240217785e-01,-3.404714496351254893e-01,-3.392685272569755939e-01,-3.377239902304395303e-01,-3.358393937733782364e-01,-3.336166355146735207e-01,-3.310579535834767828e-01,-3.281659243556025451e-01,-3.249434598593365364e-01,-3.213938048432697370e-01,-3.175205335091120795e-01,-3.133275459127738416e-01,-3.088190640373401630e-01,-3.039996275418920813e-01,-2.988740891904542729e-01,-2.934476099656733727e-01,-2.877256538721458257e-01,-2.817139824346283627e-01,-2.754186488966708923e-01,-2.688459921255137441e-01,-2.620026302293850251e-01,-2.548954538936273329e-01,-2.475316194423611282e-01,-2.399185416326733988e-01,-2.320638861885855331e-01,-2.239755620823190574e-01,-2.156617135706311028e-01,-2.071307119942381869e-01,-1.983911473485857058e-01,-1.894518196344506522e-01,-1.803217299970867882e-01,-1.710100716628343565e-01,-1.615262206823205871e-01,-1.518797264895710708e-01,-1.420803022865397558e-01,-1.321378152627373515e-01,-1.220622766598084136e-01,-1.118638316910590957e-01,-1.015527493260879460e-01,-9.113941195080330071e-02,-8.063430491324141691e-02,-7.004800596570916194e-02,-5.939117461388472574e-02,-4.867454138359833538e-02,-3.790889701610292845e-02,-2.710508160271183492e-02,-1.627397366974618967e-02,-5.426479224780865473e-03,5.426479224780941801e-03,1.627397366974626600e-02,2.710508160271191125e-02,3.790889701610292845e-02,4.867454138359841170e-02,5.939117461388472574e-02,7.004800596570923132e-02,8.063430491324141691e-02,9.113941195080337010e-02,1.015527493260879460e-01,1.118638316910591651e-01,1.220622766598084136e-01,1.321378152627374347e-01,1.420803022865397558e-01,1.518797264895711263e-01,1.615262206823205871e-01,1.710100716628344952e-01,1.803217299970868714e-01,1.894518196344506522e-01,1.983911473485857058e-01,2.071307119942382702e-01,2.156617135706311583e-01,2.239755620823190851e-01,2.320638861885855331e-01,2.399185416326734821e-01,2.475316194423611837e-01,2.548954538936273329e-01,2.620026302293849696e-01,2.688459921255137441e-01,2.754186488966708923e-01,2.817139824346283627e-01,2.877256538721458812e-01,2.934476099656734283e-01,2.988740891904542729e-01,3.039996275418920813e-01,3.088190640373402185e-01,3.133275459127738416e-01,3.175205335091120795e-01,3.213938048432697370e-01,3.249434598593365364e-01,3.281659243556025451e-01,3.310579535834767828e-01,3.336166355146735207e-01,3.358393937733782364e-01,3.377239902304395303e-01,3.392685272569755939e-01,3.404714496351254893e-01,3.413315461240217785e-01,3.418479506794073752e-01,3.420201433256688239e-01
-3.716624556603275176e-01,-3.714753393661411884e-01,-3.709141788938293827e-01,-3.699795392844200115e-01,-3.686723616407739379e-01,-3.669939621799734875e-01,-3.649460309080038711e-01,-3.625306299180603431e-01,-3.597501913141948338e-01,-3.566075147623939401e-01,-3.531057646715519138e-01,-3.492484670071795971e-01,-3.450395057410559629e-01,-3.404831189403976222e-01,-3.355838945004843699e-01,-3.303467655250378332e-01,-3.247770053590037787e-01,-3.188802222787410767e-01,-3.126623538449627149e-01,-3.061296609241153655e-01,-2.992887213842175820e-01,-2.921464234715044905e-01,-2.847099588745474752e-01,-2.769868154828335483e-01,-2.689847698470954063e-01,-2.607118793489838215e-01,-2.521764740879675060e-01,-2.433871484936290241e-01,-2.343527526718025555e-01,-2.250823834932678402e-01,-2.155853754339720485e-01,-2.058712911760040010e-01,-1.959499119787837806e-01,-1.858312278301637033e-01,-1.755254273873573800e-01,-1.650428877178252984e-01,-1.543941638504479630e-01,-1.435899781475060422e-01,-1.326412095081708764e-01,-1.215588824143747915e-01,-1.103541558300927677e-01,-9.903831196521095670e-02,-8.762274491529850606e-02,-7.611894918871831006e-02,-6.453850813263217745e-02,-5.289308226955149322e-02,-4.119439755618003324e-02,-2.945423357636898359e-02,-1.768441168007498995e-02,-5.896783080262639476e-03,5.896783080262721875e-03,1.768441168007507322e-02,2.945423357636906339e-02,4.119439755618003324e-02,5.289308226955156955e-02,6.453850813263217745e-02,7.611894918871839333e-02,8.762274491529850606e-02,9.903831196521103997e-02,1.103541558300927677e-01,1.215588824143748747e-01,1.326412095081708764e-01,1.435899781475061254e-01,1.543941638504479630e-01,1.650428877178253817e-01,1.755254273873573800e-01,1.858312278301638421e-01,1.959499119787838639e-01,2.058712911760040010e-01,2.155853754339720485e-01,2.250823834932679235e-01,2.343527526718026388e-01,2.433871484936290519e-01,2.521764740879675060e-01,2.607118793489838771e-01,2.689847698470954618e-01,2.769868154828335483e-01,2.847099588745474197e-01,2.921464234715045460e-01,2.992887213842175820e-01,3.061296609241153655e-01,3.126623538449628259e-01,3.188802222787411877e-01,3.247770053590037787e-01,3.303467655250378332e-01,3.355838945004844254e-01,3.404831189403976222e-01,3.450395057410559629e-01,3.492484670071795971e-01,3.531057646715519138e-01,3.566075147623939401e-01,3.597501913141948338e-01,3.625306299180603431e-01,3.649460309080038711e-01,3.669939621799734875e-01,3.686723616407739379e-01,3.699795392844200115e-01,3.709141788938293827e-01,3.714753393661411884e-01,3.716624556603275176e-01
-4.009305354066137750e-01,-4.007286838747496360e-01,-4.001233325265396434e-01,-3.991150908994779978e-01,-3.977049742074181271e-01,-3.958944023183384453e-01,-3.936851983246557607e-01,-3.910795867075254062e-01,-3.880801910969776114e-01,-3.846900316301443690e-01,-3.809125219102372228e-01,-3.767514655693383063e-01,-3.722110524384653063e-01,-3.672958543287667132e-01,-3.620108204280954034e-01,-3.563612723175962338e-01,-3.503528986133248035e-01,-3.439917492382932873e-01,-3.372842293307107830e-01,-3.302370927945521561e-01,-3.228574354989490747e-01,-3.151526881332514796e-01,-3.071306087249531247e-01,-2.987992748280157151e-01,-2.901670753894563526e-01,-2.812427023023896244e-01,-2.720351416540274236e-01,-2.625536646774511707e-01,-2.528078184162658726e-01,-2.428074161115365281e-01,-2.325625273206862187e-01,-2.220834677783052880e-01,-2.113807890090810271e-01,-2.004652677033068320e-01,-1.893478948656685812e-01,-1.780398647482343000e-01,-1.665525635787917236e-01,-1.548975580958815157e-01,-1.430865839020725727e-01,-1.311315336472045068e-01,-1.190444450534979548e-01,-1.068374887945879315e-01,-9.452295624068798863e-02,-8.211324708222147994e-02,-6.962085684438518163e-02,-5.705836430521382674e-02,-4.443841882981764552e-02,-3.177372763354321256e-02,-1.907704298688535707e-02,-6.361149375031490208e-03,6.361149375031578679e-03,1.907704298688544381e-02,3.177372763354330276e-02,4.443841882981764552e-02,5.705836430521391694e-02,6.962085684438518163e-02,8.211324708222157709e-02,9.452295624068798863e-02,1.068374887945880147e-01,1.190444450534979548e-01,1.311315336472045900e-01,1.430865839020725727e-01,1.548975580958815990e-01,1.665525635787917236e-01,1.780398647482343832e-01,1.893478948656685812e-01,2.004652677033069708e-01,2.113807890090811104e-01,2.220834677783052880e-01,2.325625273206862187e-01,2.428074161115366114e-01,2.528078184162659281e-01,2.625536646774512262e-01,2.720351416540274236e-01,2.812427023023896799e-01,2.901670753894564081e-01,2.987992748280157151e-01,3.071306087249531247e-01,3.151526881332515351e-01,3.228574354989490747e-01,3.302370927945521561e-01,3.372842293307108386e-01,3.439917492382933428e-01,3.503528986133248035e-01,3.563612723175962338e-01,3.620108204280954034e-01,3.672958543287667688e-01,3.722110524384653063e-01,3.767514655693383063e-01,3.809125219102372228e-01,3.846900316301443690e-01,3.880801910969776114e-01,3.910795867075254062e-01,3.936851983246557607e-01,3.958944023183385008e-01,3.977049742074181271e-01,3.991150908994779978e-01,4.001233325265396434e-01,4.007286838747496360e-01,4.009305354066137750e-01
-4.297949120891717545e-01,-4.295785285670121745e-01,-4.289295958803982511e-01,-4.278487674495377036e-01,-4.263371315770425052e-01,-4.243962103521003448e-01,-4.220279581178599804e-01,-4.192347595035730845e-01,-4.160194270234748859e-01,-4.123851982448208942e-01,-4.083357325279308170e-01,-4.038751073415228765e-01,-3.990078141570490011e-01,-3.937387539261630875e-01,-3.880732321458785217e-01,-3.820169535163823737e-01,-3.755760161968857425e-01,-3.687569056652944544e-01,-3.615664881878826176e-01,-3.540120039055444923e-01,-3.461010595435859982e-01,-3.378416207523977643e-01,-3.292420040867196640e-01,-3.203108686315759290e-01,-3.110572072833098778e-01,-3.014903376944999547e-01,-2.916198928918732336e-01,-2.814558115766642721e-01,-2.710083281171851155e-01,-2.602879622436842233e-01,-2.493055084558697676e-01,-2.380720251537632726e-01,-2.265988235028283393e-01,-2.148974560445857940e-01,-2.029797050641838074e-01,-1.908575707266348953e-01,-1.785432589936679082e-01,-1.660491693333581709e-01,-1.533878822349152293e-01,-1.405721465411956250e-01,-1.276148666116997676e-01,-1.145290893289748618e-01,-1.013279909615109886e-01,-8.802486389635476305e-02,-7.463310325480321250e-02,-6.116619340465125065e-02,-4.763769438257708932e-02,-3.406122824033401553e-02,-2.045046532849961393e-02,-6.819110531591226522e-03,6.819110531591321932e-03,2.045046532849971108e-02,3.406122824033411267e-02,4.763769438257708932e-02,6.116619340465134086e-02,7.463310325480321250e-02,8.802486389635486019e-02,1.013279909615109886e-01,1.145290893289749590e-01,1.276148666116997676e-01,1.405721465411957083e-01,1.533878822349152293e-01,1.660491693333582819e-01,1.785432589936679082e-01,1.908575707266350063e-01,2.029797050641838074e-01,2.148974560445859605e-01,2.265988235028284226e-01,2.380720251537632726e-01,2.493055084558697676e-01,2.602879622436843343e-01,2.710083281171851710e-01,2.814558115766643276e-01,2.916198928918732336e-01,3.014903376945000102e-01,3.110572072833099333e-01,3.203108686315759290e-01,3.292420040867196640e-01,3.378416207523978199e-01,3.461010595435860537e-01,3.540120039055444923e-01,3.615664881878827286e-01,3.687569056652945099e-01,3.755760161968857425e-01,3.820169535163823737e-01,3.880732321458785772e-01,3.937387539261631431e-01,3.990078141570490011e-01,4.038751073415228765e-01,4.083357325279308170e-01,4.123851982448208942e-01,4.160194270234748859e-01,4.192347595035730845e-01,4.220279581178599804e-01,4.243962103521004003e-01,4.263371315770425052e-01,4.278487674495377036e-01,4.289295958803982511e-01,4.295785285670121745e-01,4.297949120891717545e-01
-4.582265217274104629e-01,-4.579958240948202031e-01,-4.573039634900101236e-01,-4.561516365579625920e-01,-4.545400035942198103e-01,-4.524706873765638182e-01,-4.499457715310175021e-01,-4.469677984338093490e-01,-4.435397666514162007e-01,-4.396651279212611674e-01,-4.353477836761064923e-01,-4.305920811156412897e-01,-4.254028088292204912e-01,-4.197851919741606985e-01,-4.137448870144499469e-01,-4.072879760251679193e-01,-4.004209605683519135e-01,-3.931507551464749617e-01,-3.854846802401279970e-01,-3.774304549369164596e-01,-3.689961891589930154e-01,-3.601903754970541272e-01,-3.510218806590204021e-01,-3.414999365420137711e-01,-3.316341309366194201e-01,-3.214343978727933759e-01,-3.109110076171366921e-01,-3.000745563316070674e-01,-2.889359554040825118e-01,-2.775064204615182439e-01,-2.657974600767611939e-01,-2.538208641803927357e-01,-2.415886921892680117e-01,-2.291132608637051482e-01,-2.164071319055521636e-01,-2.034830993096172491e-01,-1.903541764812013981e-01,-1.770335831327014831e-01,-1.635347319724812787e-01,-1.498712151994103237e-01,-1.360567908166726014e-01,-1.221053687786226860e-01,-1.080309969846417195e-01,-9.384784713409259627e-02,-7.957020045662090146e-02,-6.521243333216636406e-02,-5.078900281516769699e-02,-3.631443207753348723e-02,-2.180329578503978349e-02,-7.270205421876896335e-03,7.270205421876998683e-03,2.180329578503988411e-02,3.631443207753358438e-02,5.078900281516769699e-02,6.521243333216646121e-02,7.957020045662090146e-02,9.384784713409269341e-02,1.080309969846417195e-01,1.221053687786227970e-01,1.360567908166726014e-01,1.498712151994104347e-01,1.635347319724812787e-01,1.770335831327015663e-01,1.903541764812013981e-01,2.034830993096173601e-01,2.164071319055521636e-01,2.291132608637053425e-01,2.415886921892681227e-01,2.538208641803927357e-01,2.657974600767611939e-01,2.775064204615183550e-01,2.889359554040826228e-01,3.000745563316071229e-01,3.109110076171366921e-01,3.214343978727934870e-01,3.316341309366194756e-01,3.414999365420137711e-01,3.510218806590204021e-01,3.601903754970541827e-01,3.689961891589930709e-01,3.774304549369164596e-01,3.854846802401281081e-01,3.931507551464750727e-01,4.004209605683519135e-01,4.072879760251679193e-01,4.137448870144500024e-01,4.197851919741607540e-01,4.254028088292204912e-01,4.305920811156412897e-01,4.353477836761064923e-01,4.396651279212611674e-01,4.435397666514162007e-01,4.469677984338093490e-01,4.499457715310175021e-01,4.524706873765638737e-01,4.545400035942198103e-01,4.561516365579625920e-01,4.573039634900101236e-01,4.579958240948202031e-01,4.582265217274104629e-01
-4.861967361004686516e-01,-4.859519566504083010e-01,-4.852178647723845994e-01,-4.839951996346921748e-01,-4.822851923574839605e-01,-4.800895647731369120e-01,-4.774105276925131869e-01,-4.742507786788606183e-01,-4.706134993315955750e-01,-4.665023520827016879e-01,-4.619214765089717512e-01,-4.568754851638040515e-01,-4.513694589327529871e-01,-4.454089419175073505e-01,-4.389999358534500407e-01,-4.321488940664194867e-01,-4.248627149747571385e-01,-4.171487351431854562e-01,-4.090147218955086927e-01,-4.004688654935765757e-01,-3.915197708903844775e-01,-3.821764490656157642e-01,-3.724483079523482343e-01,-3.623451429640638932e-01,-3.518771271314972693e-01,-3.410548008592561020e-01,-3.298890613125272098e-01,-3.183911514445549318e-01,-3.065726486759401959e-01,-2.944454532371594824e-01,-2.820217761860412398e-01,-2.693141271122659330e-01,-2.563353015412696001e-01,-2.430983680502342426e-01,-2.296166551091386732e-01,-2.159037376601185276e-01,-2.019734234486509072e-01,-1.878397391203243949e-01,-1.735169160971966884e-01,-1.590193762479581441e-01,-1.443617173663333531e-01,-1.295586984723393342e-01,-1.146252249512043908e-01,-9.957633354490774691e-02,-8.442717721145583110e-02,-6.919300986713725066e-02,-5.388917102712285911e-02,-3.853107035987347190e-02,-2.313417217091065861e-02,-7.713979831571660638e-03,7.713979831571769058e-03,2.313417217091076963e-02,3.853107035987357598e-02,5.388917102712285911e-02,6.919300986713736168e-02,8.442717721145583110e-02,9.957633354490784405e-02,1.146252249512043908e-01,1.295586984723394453e-01,1.443617173663333531e-01,1.590193762479582551e-01,1.735169160971966884e-01,1.878397391203245059e-01,2.019734234486509072e-01,2.159037376601186387e-01,2.296166551091386732e-01,2.430983680502344368e-01,2.563353015412697111e-01,2.693141271122659330e-01,2.820217761860412398e-01,2.944454532371595934e-01,3.065726486759403069e-01,3.183911514445549873e-01,3.298890613125272098e-01,3.410548008592562130e-01,3.518771271314973248e-01,3.623451429640638932e-01,3.724483079523481788e-01,3.821764490656158197e-01,3.915197708903845331e-01,4.004688654935765757e-01,4.090147218955088038e-01,4.171487351431855672e-01,4.248627149747571385e-01,4.321488940664194867e-01,4.389999358534500962e-01,4.454089419175074060e-01,4.513694589327529871e-01,4.568754851638040515e-01,4.619214765089717512e-01,4.665023520827016879e-01,4.706134993315955750e-01,4.742507786788606183e-01,4.774105276925131869e-01,4.800895647731369675e-01,4.822851923574839605e-01,4.839951996346921748e-01,4.852178647723845994e-01,4.859519566504083010e-01,4.861967361004686516e-01
-5.136773915734064166e-01,-5.134187767780331590e-01,-5.126431927950906298e-01,-5.113514205719060790e-01,-5.095447608136095541e-01,-5.072250326734334402e-01,-5.043945719209802503e-01,-5.010562285902996349e-01,-4.972133641101463275e-01,-4.928698479193062698e-01,-4.880300535703995246e-01,-4.826988543260835596e-01,-4.768816182520910218e-01,-4.705842028120425513e-01,-4.638129489694770569e-01,-4.565746748030394819e-01,-4.488766686412531959e-01,-4.407266817237910361e-01,-4.321329203966341459e-01,-4.231040378489769882e-01,-4.136491254001993800e-01,-4.037777033456788067e-01,-3.934997113706593108e-01,-3.828254985418318990e-01,-3.717658128867007417e-01,-3.603317905712312141e-01,-3.485349446866745082e-01,-3.363871536568605047e-01,-3.239006492776320134e-01,-3.110880044004633027e-01,-2.979621202726643325e-01,-2.845362135469182152e-01,-2.708238029732323304e-01,-2.568386957867030973e-01,-2.425949738048008009e-01,-2.281069792481723313e-01,-2.133893002992417187e-01,-1.984567564131460848e-01,-1.833243833958014268e-01,-1.680074182641196345e-01,-1.525212839036250434e-01,-1.368815735389149746e-01,-1.211040350326055143e-01,-1.052045550285675701e-01,-8.919914295542423488e-02,-7.310391490641225676e-02,-5.693507741184314352e-02,-4.070891112050005478e-02,-2.444175440640524236e-02,-8.149986917462105976e-03,8.149986917462220468e-03,2.444175440640535685e-02,4.070891112050016580e-02,5.693507741184314352e-02,7.310391490641236778e-02,8.919914295542423488e-02,1.052045550285676812e-01,1.211040350326055143e-01,1.368815735389151134e-01,1.525212839036250434e-01,1.680074182641197733e-01,1.833243833958014268e-01,1.984567564131461959e-01,2.133893002992417187e-01,2.281069792481724423e-01,2.425949738048008009e-01,2.568386957867033193e-01,2.708238029732324414e-01,2.845362135469182152e-01,2.979621202726643325e-01,3.110880044004634137e-01,3.239006492776321244e-01,3.363871536568605602e-01,3.485349446866745082e-01,3.603317905712313252e-01,3.717658128867007972e-01,3.828254985418318990e-01,3.934997113706592553e-01,4.037777033456788622e-01,4.136491254001994355e-01,4.231040378489769882e-01,4.321329203966342569e-01,4.407266817237911471e-01,4.488766686412531959e-01,4.565746748030394819e-01,4.638129489694771124e-01,4.705842028120426068e-01,4.768816182520910218e-01,4.826988543260835596e-01,4.880300535703995246e-01,4.928698479193062698e-01,4.972133641101463275e-01,5.010562285902996349e-01,5.043945719209802503e-01,5.072250326734335513e-01,5.095447608136095541e-01,5.113514205719060790e-01,5.126431927950906298e-01,5.134187767780331590e-01,5.136773915734064166e-01
-5.406408174555976665e-01,-5.403686277180885789e-01,-5.395523325775546386e-01,-5.381927539740078981e-01,-5.362912608878556142e-01,-5.338497679614526703e-01,-5.308707335712198327e-01,-5.273571573522658484e-01,-5.233125771780102742e-01,-5.187410655978440532e-01,-5.136472257364180782e-01,-5.080361866586864394e-01,-5.019135982053729572e-01,-4.952856253040606727e-01,-4.881589417616318816e-01,-4.805407235443107106e-01,-4.724386415520733240e-01,-4.638608538947017745e-01,-4.548159976772592206e-01,-4.453131803032569502e-01,-4.353619703042711508e-01,-4.249723877052429821e-01,-4.141548939351623604e-01,-4.029203812932961593e-01,-3.912801619815657883e-01,-3.792459567141190369e-01,-3.668298829155644536e-01,-3.540444425197515343e-01,-3.409025093813835006e-01,-3.274173163131368081e-01,-3.136024417613402782e-01,-2.994717961336307299e-01,-2.850396077923517124e-01,-2.703204087277987222e-01,-2.553290199257368109e-01,-2.400805364439238532e-01,-2.245903122126675922e-01,-2.088739445747186396e-01,-1.929472585800691697e-01,-1.768262910514681874e-01,-1.605272744367013948e-01,-1.440666204638910708e-01,-1.274609036162782649e-01,-1.107268444431218773e-01,-9.388129272352409294e-02,-7.694121050013001673e-02,-5.992365499978955651e-02,-4.284576145837491745e-02,-2.572472586705137551e-02,-8.577787657371474875e-03,8.577787657371596305e-03,2.572472586705149694e-02,4.284576145837504235e-02,5.992365499978955651e-02,7.694121050013012775e-02,9.388129272352409294e-02,1.107268444431220022e-01,1.274609036162782649e-01,1.440666204638912096e-01,1.605272744367013948e-01,1.768262910514682984e-01,1.929472585800691697e-01,2.088739445747187506e-01,2.245903122126675922e-01,2.400805364439239642e-01,2.553290199257368109e-01,2.703204087277989442e-01,2.850396077923518789e-01,2.994717961336307299e-01,3.136024417613402782e-01,3.274173163131369191e-01,3.409025093813836671e-01,3.540444425197515899e-01,3.668298829155644536e-01,3.792459567141191479e-01,3.912801619815658438e-01,4.029203812932961593e-01,4.141548939351623049e-01,4.249723877052430376e-01,4.353619703042712064e-01,4.453131803032569502e-01,4.548159976772593316e-01,4.638608538947019411e-01,4.724386415520733240e-01,4.805407235443107106e-01,4.881589417616319371e-01,4.952856253040607837e-01,5.019135982053729572e-01,5.080361866586864394e-01,5.136472257364180782e-01,5.187410655978440532e-01,5.233125771780102742e-01,5.273571573522658484e-01,5.308707335712198327e-01,5.338497679614527813e-01,5.362912608878556142e-01,5.381927539740078981e-01,5.395523325775546386e-01,5.403686277180885789e-01,5.406408174555976665e-01
-5.670598638627707411e-01,-5.667743732551190350e-01,-5.659181888970058472e-01,-5.644921728935039518e-01,-5.624977611218510143e-01,-5.599369617856417847e-01,-5.568123533927382685e-01,-5.531270821589303610e-01,-5.488848588399635187e-01,-5.440899549951219161e-01,-5.387471986861309681e-01,-5.328619696157074204e-01,-5.264401937106559792e-01,-5.194883371549622320e-01,-5.120133998788942709e-01,-5.040229085106656681e-01,-4.955249087977592892e-01,-4.865279575055413974e-01,-4.770411138013244678e-01,-4.670739301325533832e-01,-4.566364426083003858e-01,-4.457391608937547045e-01,-4.343930576278797195e-01,-4.226095573748961942e-01,-4.104005251207143989e-01,-3.977782543258988612e-01,-3.847554545471960075e-01,-3.713452386400874494e-01,-3.575611095552562735e-01,-3.434169467422604205e-01,-3.289269921741031499e-01,-3.141058360067737754e-01,-2.989684018881971217e-01,-2.835299319313852595e-01,-2.678059713669218578e-01,-2.518123528902319608e-01,-2.355651807194008296e-01,-2.190808143795905105e-01,-2.023758522303854834e-01,-1.854671147526507358e-01,-1.683716276117343258e-01,-1.511066045140645187e-01,-1.336894298744075449e-01,-1.161376413112346351e-01,-9.846891198782775634e-02,-8.070103281690126085e-02,-6.285189454666188780e-02,-4.493946974634087377e-02,-2.698179470934102334e-02,-8.996951292217794660e-03,8.996951292217919560e-03,2.698179470934114824e-02,4.493946974634100561e-02,6.285189454666188780e-02,8.070103281690138575e-02,9.846891198782775634e-02,1.161376413112347739e-01,1.336894298744075449e-01,1.511066045140646297e-01,1.683716276117343258e-01,1.854671147526508468e-01,2.023758522303854834e-01,2.190808143795906215e-01,2.355651807194008296e-01,2.518123528902320718e-01,2.678059713669218578e-01,2.835299319313854816e-01,2.989684018881972327e-01,3.141058360067737754e-01,3.289269921741031499e-01,3.434169467422605315e-01,3.575611095552563845e-01,3.713452386400875049e-01,3.847554545471960075e-01,3.977782543258989723e-01,4.104005251207144545e-01,4.226095573748961942e-01,4.343930576278796085e-01,4.457391608937547600e-01,4.566364426083004413e-01,4.670739301325533832e-01,4.770411138013246344e-01,4.865279575055415084e-01,4.955249087977592892e-01,5.040229085106656681e-01,5.120133998788942709e-01,5.194883371549623430e-01,5.264401937106559792e-01,5.328619696157074204e-01,5.387471986861309681e-01,5.440899549951219161e-01,5.488848588399635187e-01,5.531270821589303610e-01,5.568123533927382685e-01,5.599369617856418957e-01,5.624977611218510143e-01,5.644921728935039518e-01,5.659181888970058472e-01,5.667743732551190350e-01,5.670598638627707411e-01
-5.929079290546405145e-01,-5.926094250416880094e-01,-5.917142135710685702e-01,-5.902231960448490744e-01,-5.881378737912904553e-01,-5.854603465531366124e-01,-5.821933103733525350e-01,-5.783400548804360497e-01,-5.739044599760422249e-01,-5.688909919282504335e-01,-5.633046988744114802e-01,-5.571512057381005079e-01,-5.504367085652968061e-01,-5.431679682854896329e-01,-5.353523039039961295e-01,-5.269975851323429605e-01,-5.181122244641338526e-01,-5.087051687043819825e-01,-4.987858899608356156e-01,-4.883643761063681255e-01,-4.774511207220369369e-01,-4.660571125309372897e-01,-4.541938243334885938e-01,-4.418732014552980703e-01,-4.291076497192293782e-01,-4.159100229537913695e-01,-4.022936100504219681e-01,-3.882721215827008576e-01,-3.738596760009643694e-01,-3.590707854162226709e-01,-3.439203409876939732e-01,-3.284235979286696527e-01,-3.125961601458074335e-01,-2.964539645273201462e-01,-2.800132648958805759e-01,-2.632906156423987509e-01,-2.463028550571550179e-01,-2.290670883750676179e-01,-2.116006705521722708e-01,-1.939211887906515108e-01,-1.760464448300140261e-01,-1.579944370222506889e-01,-1.397833422090210553e-01,-1.214314974191133267e-01,-1.029573814046119556e-01,-8.437959603435953027e-02,-6.571684756345272382e-02,-4.698792779762801103e-02,-2.821169517150716802e-02,-9.407055759751755536e-03,9.407055759751887375e-03,2.821169517150729986e-02,4.698792779762814287e-02,6.571684756345272382e-02,8.437959603435966904e-02,1.029573814046119556e-01,1.214314974191134516e-01,1.397833422090210553e-01,1.579944370222508276e-01,1.760464448300140261e-01,1.939211887906516496e-01,2.116006705521722708e-01,2.290670883750677567e-01,2.463028550571550179e-01,2.632906156423989175e-01,2.800132648958805759e-01,2.964539645273203683e-01,3.125961601458075445e-01,3.284235979286696527e-01,3.439203409876939732e-01,3.590707854162227819e-01,3.738596760009644804e-01,3.882721215827009131e-01,4.022936100504219681e-01,4.159100229537915361e-01,4.291076497192294337e-01,4.418732014552980703e-01,4.541938243334885383e-01,4.660571125309373453e-01,4.774511207220369924e-01,4.883643761063681255e-01,4.987858899608357266e-01,5.087051687043822046e-01,5.181122244641338526e-01,5.269975851323429605e-01,5.353523039039962406e-01,5.431679682854897440e-01,5.504367085652968061e-01,5.571512057381005079e-01,5.633046988744114802e-01,5.688909919282504335e-01,5.739044599760422249e-01,5.783400548804360497e-01,5.821933103733525350e-01,5.854603465531367235e-01,5.881378737912904553e-01,5.902231960448490744e-01,5.917142135710685702e-01,5.926094250416880094e-01,5.929079290546405145e-01
-6.181589862206052777e-01,-6.178477693705899387e-01,-6.169144321895312366e-01,-6.153599144688548517e-01,-6.131857814761346726e-01,-6.103942223790009836e-01,-6.069880480408343937e-01,-6.029706881904642879e-01,-5.983461879687229645e-01,-5.931192038553316781e-01,-5.872949989802201953e-01,-5.808794378240007550e-01,-5.738789803129341616e-01,-5.663006753143307037e-01,-5.581521535389383226e-01,-5.494416198574643140e-01,-5.401778450389657094e-01,-5.303701569194280152e-01,-5.200284310094255291e-01,-5.091630805503192247e-01,-4.977850460290048629e-01,-4.859057841617709372e-01,-4.735372563583555849e-01,-4.606919166778218333e-01,-4.473826992883750409e-01,-4.336230054437524295e-01,-4.194266899892962197e-01,-4.048080474112988880e-01,-3.897817974436671995e-01,-3.743630702463979221e-01,-3.585673911707891737e-01,-3.424106651267276313e-01,-3.259091605677927328e-01,-3.090794931103025278e-01,-2.919386088027972059e-01,-2.745037670628034943e-01,-2.567925232980656225e-01,-2.388227112297366395e-01,-2.206124249353337841e-01,-2.021800006295353946e-01,-1.835439982011680127e-01,-1.647231825249703963e-01,-1.457365045669565817e-01,-1.266030823023982232e-01,-1.073421814656452256e-01,-8.797319615116329372e-02,-6.851562928532577146e-02,-4.898907298861901460e-02,-2.941318884803860445e-02,-9.807688119537619556e-03,9.807688119537756599e-03,2.941318884803874323e-02,4.898907298861915338e-02,6.851562928532577146e-02,8.797319615116341862e-02,1.073421814656452256e-01,1.266030823023983620e-01,1.457365045669565817e-01,1.647231825249705350e-01,1.835439982011680127e-01,2.021800006295355334e-01,2.206124249353337841e-01,2.388227112297367782e-01,2.567925232980656225e-01,2.745037670628036053e-01,2.919386088027972059e-01,3.090794931103027499e-01,3.259091605677928438e-01,3.424106651267276313e-01,3.585673911707891737e-01,3.743630702463980886e-01,3.897817974436673105e-01,4.048080474112989435e-01,4.194266899892962197e-01,4.336230054437525405e-01,4.473826992883750964e-01,4.606919166778218333e-01,4.735372563583555294e-01,4.859057841617709927e-01,4.977850460290049184e-01,5.091630805503192247e-01,5.200284310094257512e-01,5.303701569194281262e-01,5.401778450389657094e-01,5.494416198574643140e-01,5.581521535389383226e-01,5.663006753143307037e-01,5.738789803129341616e-01,5.808794378240007550e-01,5.872949989802201953e-01,5.931192038553316781e-01,5.983461879687229645e-01,6.029706881904642879e-01,6.069880480408343937e-01,6.103942223790010946e-01,6.131857814761346726e-01,6.153599144688548517e-01,6.169144321895312366e-01,6.178477693705899387e-01,6.181589862206052777e-01
-6.427876096865393629e-01,-6.424639933684483939e-01,-6.414934702683763312e-01,-6.398770176208168348e-01,-6.376162630565654910e-01,-6.347134829638323428e-01,-6.311716001961127365e-01,-6.269941811291213085e-01,-6.221854320697536300e-01,-6.167501950206925043e-01,-6.106939428049210639e-01,-6.040227735550536270e-01,-5.967434045730345415e-01,-5.888631655663828512e-01,-5.803899912677987771e-01,-5.713324134455610714e-01,-5.616995523127584766e-01,-5.515011073440091449e-01,-5.407473475089115134e-01,-5.294491009320624331e-01,-5.176177439900531141e-01,-5.052651898564232136e-01,-4.924038765061040657e-01,-4.790467541914325555e-01,-4.652072724023447736e-01,-4.508993663238797800e-01,-4.361374428046292939e-01,-4.209363658502625616e-01,-4.053114416567323852e-01,-3.892784031982336468e-01,-3.728533943854315802e-01,-3.560529538099122537e-01,-3.388939980912227812e-01,-3.213938048432695704e-01,-3.035699952772255572e-01,-2.854405164584639110e-01,-2.670236232353851991e-01,-2.483378598583316776e-01,-2.294020413070999020e-01,-2.102352343458500916e-01,-1.908567383244919036e-01,-1.712860657458737390e-01,-1.515429226183477029e-01,-1.316471886134883418e-01,-1.116188970489496723e-01,-9.147821471661132797e-02,-7.124542157632970940e-02,-5.094089033573637876e-02,-3.058506593664931869e-02,-1.019844496874922936e-02,1.019844496874937334e-02,3.058506593664946441e-02,5.094089033573651754e-02,7.124542157632970940e-02,9.147821471661146675e-02,1.116188970489496723e-01,1.316471886134884806e-01,1.515429226183477029e-01,1.712860657458738778e-01,1.908567383244919036e-01,2.102352343458502582e-01,2.294020413070999020e-01,2.483378598583318164e-01,2.670236232353851991e-01,2.854405164584640775e-01,3.035699952772255572e-01,3.213938048432698480e-01,3.388939980912229477e-01,3.560529538099122537e-01,3.728533943854315802e-01,3.892784031982338133e-01,4.053114416567324962e-01,4.209363658502626171e-01,4.361374428046292939e-01,4.508993663238799465e-01,4.652072724023448846e-01,4.790467541914325555e-01,4.924038765061039546e-01,5.052651898564233246e-01,5.176177439900531141e-01,5.294491009320624331e-01,5.407473475089117354e-01,5.515011073440093670e-01,5.616995523127584766e-01,5.713324134455610714e-01,5.803899912677988882e-01,5.888631655663828512e-01,5.967434045730345415e-01,6.040227735550536270e-01,6.106939428049210639e-01,6.167501950206925043e-01,6.221854320697536300e-01,6.269941811291213085e-01,6.311716001961127365e-01,6.347134829638323428e-01,6.376162630565654910e-01,6.398770176208168348e-01,6.414934702683763312e-01,6.424639933684483939e-01,6.427876096865393629e-01
-6.667690005162916211e-01,-6.664333105843256444e-01,-6.654265787997341031e-01,-6.637498188560868595e-01,-6.614047191085145050e-01,-6.583936408736771329e-01,-6.547196160521192576e-01,-6.503863440754021896e-01,-6.453981881810908483e-01,-6.397601710193430158e-01,-6.334779695955261580e-01,-6.265579095539547394e-01,-6.190069588085023167e-01,-6.108327205265027260e-01,-6.020434254730054890e-01,-5.926479237230929398e-01,-5.826556757506045070e-01,-5.720767429022419748e-01,-5.609217772666459378e-01,-5.492020109486455137e-01,-5.369292447594806728e-01,-5.241158363343862980e-01,-5.107746876895001842e-01,-4.969192322306270615e-01,-4.825634212269372947e-01,-4.677217097632216380e-01,-4.524090421848461219e-01,-4.366408370500628466e-01,-4.204329716048289534e-01,-4.038017657957660433e-01,-3.867639658373567269e-01,-3.693367273499267855e-01,-3.515375980853891469e-01,-3.333845002581456995e-01,-3.148957124989364420e-01,-2.960898514498071510e-01,-2.769858530187300771e-01,-2.576029533127483506e-01,-2.379606692688481517e-01,-2.180787790020562722e-01,-1.979773018905560122e-01,-1.776764784178690437e-01,-1.571967497924056378e-01,-1.365587373648990133e-01,-1.157832218644545830e-01,-9.489112247411596313e-02,-7.390347576702206711e-02,-5.284141452436002390e-02,-3.172614645644685621e-02,-1.057893284836247151e-02,1.057893284836262070e-02,3.172614645644700193e-02,5.284141452436016961e-02,7.390347576702206711e-02,9.489112247411611578e-02,1.157832218644545830e-01,1.365587373648991798e-01,1.571967497924056378e-01,1.776764784178692103e-01,1.979773018905560122e-01,2.180787790020564110e-01,2.379606692688481517e-01,2.576029533127485172e-01,2.769858530187300771e-01,2.960898514498073175e-01,3.148957124989364420e-01,3.333845002581459771e-01,3.515375980853893134e-01,3.693367273499267855e-01,3.867639658373567269e-01,4.038017657957661544e-01,4.204329716048291199e-01,4.366408370500629021e-01,4.524090421848461219e-01,4.677217097632218046e-01,4.825634212269373502e-01,4.969192322306270615e-01,5.107746876895000732e-01,5.241158363343864091e-01,5.369292447594806728e-01,5.492020109486455137e-01,5.609217772666460489e-01,5.720767429022421968e-01,5.826556757506045070e-01,5.926479237230929398e-01,6.020434254730056001e-01,6.108327205265028370e-01,6.190069588085023167e-01,6.265579095539547394e-01,6.334779695955261580e-01,6.397601710193430158e-01,6.453981881810908483e-01,6.503863440754021896e-01,6.547196160521192576e-01,6.583936408736772439e-01,6.614047191085145050e-01,6.637498188560868595e-01,6.654265787997341031e-01,6.664333105843256444e-01,6.667690005162916211e-01
-6.900790114821120369e-01,-6.897315859475772193e-01,-6.886896591720363947e-01,-6.869542802874317733e-01,-6.845271966731987234e-01,-6.814108521968014198e-01,-6.776083847529666970e-01,-6.731236231040889084e-01,-6.679610830249915754e-01,-6.621259627559245020e-01,-6.556241377683769134e-01,-6.484621548489747367e-01,-6.406472255074229238e-01,-6.321872187151250655e-01,-6.230906529817968886e-01,-6.133666877780491467e-01,-6.030251143125765489e-01,-5.920763456732412999e-01,-5.805314063419759751e-01,-5.684019210940643996e-01,-5.557001032929786977e-01,-5.424387425925577544e-01,-5.286311920589094049e-01,-5.142913547250049788e-01,-4.994336695915039814e-01,-4.840730970879036366e-01,-4.682251040086552463e-01,-4.519056479394126247e-01,-4.351311611890965048e-01,-4.179185342439520889e-01,-4.002850987602612487e-01,-3.822486101128337310e-01,-3.638272295168497594e-01,-3.450395057410559074e-01,-3.259043564307274599e-01,-3.064410490592024972e-01,-2.866691815271704691e-01,-2.666086624292464680e-01,-2.462796910077049151e-01,-2.257027368135539058e-01,-2.048985190954336066e-01,-1.838879859370877445e-01,-1.626922931644205483e-01,-1.413327830433717403e-01,-1.198309627900654706e-01,-9.820848291486519721e-02,-7.648711542214642334e-02,-5.468873188773255845e-02,-3.283528143607302580e-02,-1.094876863933515361e-02,1.094876863933530627e-02,3.283528143607317845e-02,5.468873188773271110e-02,7.648711542214642334e-02,9.820848291486534987e-02,1.198309627900654706e-01,1.413327830433719068e-01,1.626922931644205483e-01,1.838879859370879111e-01,2.048985190954336066e-01,2.257027368135540724e-01,2.462796910077049151e-01,2.666086624292465790e-01,2.866691815271704691e-01,3.064410490592026637e-01,3.259043564307274599e-01,3.450395057410561850e-01,3.638272295168499260e-01,3.822486101128337310e-01,4.002850987602612487e-01,4.179185342439522555e-01,4.351311611890966713e-01,4.519056479394127357e-01,4.682251040086552463e-01,4.840730970879038031e-01,4.994336695915040369e-01,5.142913547250049788e-01,5.286311920589092939e-01,5.424387425925578654e-01,5.557001032929786977e-01,5.684019210940643996e-01,5.805314063419760862e-01,5.920763456732415220e-01,6.030251143125765489e-01,6.133666877780491467e-01,6.230906529817969997e-01,6.321872187151251765e-01,6.406472255074229238e-01,6.484621548489747367e-01,6.556241377683769134e-01,6.621259627559245020e-01,6.679610830249915754e-01,6.731236231040889084e-01,6.776083847529666970e-01,6.814108521968015308e-01,6.845271966731987234e-01,6.869542802874317733e-01,6.886896591720363947e-01,6.897315859475772193e-01,6.900790114821120369e-01
-7.126941713788629285e-01,-7.123353600698226762e-01,-7.112592874352750005e-01,-7.094670369891481476e-01,-7.069604133757187991e-01,-7.037419405524880656e-01,-6.998148592487710706e-01,-6.951831237025560828e-01,-6.898513976789225621e-01,-6.838250497740253619e-01,-6.771101480093731917e-01,-6.697134537218449868e-01,-6.616424147555975965e-01,-6.529051579627171975e-01,-6.435104810201686121e-01,-6.334678435712806088e-01,-6.227873577006859396e-01,-6.114797777523104383e-01,-5.995564895006596506e-01,-5.870294986863091591e-01,-5.739114189271412592e-01,-5.602154590175018045e-01,-5.459554096280625490e-01,-5.311456294197862693e-01,-5.158010305859713762e-01,-4.999370638369374786e-01,-4.835697028424701394e-01,-4.667154281476889044e-01,-4.493912105785357047e-01,-4.316144941535917101e-01,-4.134031785194290931e-01,-3.947756009271842781e-01,-3.757505177685005471e-01,-3.563470856894313532e-01,-3.365848423013220736e-01,-3.164836865080906114e-01,-2.960638584697189990e-01,-2.753459192221268670e-01,-2.543507299739523608e-01,-2.330994311010820552e-01,-2.116134208600858324e-01,-1.899143338419848892e-01,-1.680240191880540135e-01,-1.459645185895868114e-01,-1.237580440937825071e-01,-1.014269557380957781e-01,-7.899373903557582732e-02,-5.648098233385943912e-02,-3.391135407062069451e-02,-1.130757994837540067e-02,1.130757994837555853e-02,3.391135407062085411e-02,5.648098233385959177e-02,7.899373903557582732e-02,1.014269557380959447e-01,1.237580440937825071e-01,1.459645185895869779e-01,1.680240191880540135e-01,1.899143338419850557e-01,2.116134208600858324e-01,2.330994311010821940e-01,2.543507299739523608e-01,2.753459192221270335e-01,2.960638584697189990e-01,3.164836865080907780e-01,3.365848423013220736e-01,3.563470856894316308e-01,3.757505177685006581e-01,3.947756009271842781e-01,4.134031785194290931e-01,4.316144941535918766e-01,4.493912105785358713e-01,4.667154281476889599e-01,4.835697028424701394e-01,4.999370638369376452e-01,5.158010305859713762e-01,5.311456294197862693e-01,5.459554096280624380e-01,5.602154590175018045e-01,5.739114189271413702e-01,5.870294986863091591e-01,5.995564895006598727e-01,6.114797777523105493e-01,6.227873577006859396e-01,6.334678435712806088e-01,6.435104810201687231e-01,6.529051579627171975e-01,6.616424147555975965e-01,6.697134537218449868e-01,6.771101480093731917e-01,6.838250497740253619e-01,6.898513976789225621e-01,6.951831237025560828e-01,6.998148592487710706e-01,7.037419405524881766e-01,7.069604133757187991e-01,7.094670369891481476e-01,7.112592874352750005e-01,7.123353600698226762e-01,7.126941713788629285e-01
-7.345917086575333155e-01,-7.342218728665605987e-01,-7.331127378869345401e-01,-7.312654205235619154e-01,-7.286817808684376008e-01,-7.253644204276883389e-01,-7.213166795020774513e-01,-7.165426338236047243e-01,-7.110470904515898694e-01,-7.048355829323711408e-01,-6.979143657274936574e-01,-6.902904079159959405e-01,-6.819713861771391494e-01,-6.729656770606411431e-01,-6.632823485522006957e-01,-6.529311509428054050e-01,-6.419225070110143871e-01,-6.302675015281041793e-01,-6.179778700966436222e-01,-6.050659873337367323e-01,-5.915448544108321549e-01,-5.774280859626461648e-01,-5.627298963783786689e-01,-5.474650854890288354e-01,-5.316490236652197110e-01,-5.152976363405378235e-01,-4.984273879759711368e-01,-4.810552654815932194e-01,-4.631987611121840542e-01,-4.448758548540127089e-01,-4.261049963205147395e-01,-4.069050861750959092e-01,-3.872954570997659274e-01,-3.672958543287665467e-01,-3.469264157667946158e-01,-3.262076517118384089e-01,-3.051604242030471204e-01,-2.838059260144247253e-01,-2.621656593155041737e-01,-2.402614140204840931e-01,-2.181152458476335321e-01,-1.957494541110519071e-01,-1.731865592671513465e-01,-1.504492802384646000e-01,-1.275605115376172993e-01,-1.045433002144929846e-01,-8.142082264980894657e-02,-5.821636121846397727e-02,-3.495328084616164399e-02,-1.165500548291014196e-02,1.165500548291030503e-02,3.495328084616181052e-02,5.821636121846414380e-02,8.142082264980894657e-02,1.045433002144931511e-01,1.275605115376172993e-01,1.504492802384647665e-01,1.731865592671513465e-01,1.957494541110520736e-01,2.181152458476335321e-01,2.402614140204842597e-01,2.621656593155041737e-01,2.838059260144248919e-01,3.051604242030471204e-01,3.262076517118385754e-01,3.469264157667946158e-01,3.672958543287668243e-01,3.872954570997660939e-01,4.069050861750959092e-01,4.261049963205147395e-01,4.448758548540128754e-01,4.631987611121842208e-01,4.810552654815933304e-01,4.984273879759711368e-01,5.152976363405379345e-01,5.316490236652198220e-01,5.474650854890288354e-01,5.627298963783785579e-01,5.774280859626462759e-01,5.915448544108322659e-01,6.050659873337367323e-01,6.179778700966437333e-01,6.302675015281044013e-01,6.419225070110143871e-01,6.529311509428054050e-01,6.632823485522008067e-01,6.729656770606412541e-01,6.819713861771391494e-01,6.902904079159959405e-01,6.979143657274936574e-01,7.048355829323711408e-01,7.110470904515898694e-01,7.165426338236047243e-01,7.213166795020774513e-01,7.253644204276883389e-01,7.286817808684376008e-01,7.312654205235619154e-01,7.331127378869345401e-01,7.342218728665605987e-01,7.345917086575333155e-01
-7.557495743542583799e-01,-7.553690864746450684e-01,-7.542280059548476245e-01,-7.523274817662238823e-01,-7.496694275755315662e-01,-7.462565198180268755e-01,-7.420921950025219926e-01,-7.371806462511113489e-01,-7.315268190770534140e-01,-7.251364064050580538e-01,-7.180158428389940006e-01,-7.101722981827877090e-01,-7.016136702210394871e-01,-6.923485767666228696e-01,-6.823863469832779360e-01,-6.717370119919346960e-01,-6.604112947702237557e-01,-6.484205993553475711e-01,-6.357769993611812609e-01,-6.224932258211667291e-01,-6.085826543692415269e-01,-5.940592917717092414e-01,-5.789377618236125622e-01,-5.632332906238122217e-01,-5.469616912435952827e-01,-5.301393478042534246e-01,-5.127831989796608481e-01,-4.949107209404663976e-01,-4.765399097570701681e-01,-4.576892632791071391e-01,-4.383777625096795250e-01,-4.186248524930964443e-01,-3.984504227353620198e-01,-3.778747871771290789e-01,-3.569186637392830486e-01,-3.356031534617510137e-01,-3.139497192565443573e-01,-2.919801642964243160e-01,-2.697166100609566519e-01,-2.471814740620554840e-01,-2.243974472714503621e-01,-2.013874712727997951e-01,-1.781747151614626878e-01,-1.547825522151816680e-01,-1.312345363591752578e-01,-1.075543784493303012e-01,-8.376592239738130108e-02,-5.989312116211116532e-02,-3.596001263075325471e-02,-1.199069541487610482e-02,1.199069541487627136e-02,3.596001263075342819e-02,5.989312116211133186e-02,8.376592239738130108e-02,1.075543784493304678e-01,1.312345363591752578e-01,1.547825522151818345e-01,1.781747151614626878e-01,2.013874712727999616e-01,2.243974472714503621e-01,2.471814740620556505e-01,2.697166100609566519e-01,2.919801642964244826e-01,3.139497192565443573e-01,3.356031534617511802e-01,3.569186637392830486e-01,3.778747871771293565e-01,3.984504227353621864e-01,4.186248524930964443e-01,4.383777625096795250e-01,4.576892632791073057e-01,4.765399097570703346e-01,4.949107209404664531e-01,5.127831989796608481e-01,5.301393478042535357e-01,5.469616912435953937e-01,5.632332906238122217e-01,5.789377618236124512e-01,5.940592917717092414e-01,6.085826543692416379e-01,6.224932258211667291e-01,6.357769993611813719e-01,6.484205993553477931e-01,6.604112947702237557e-01,6.717370119919346960e-01,6.823863469832780471e-01,6.923485767666228696e-01,7.016136702210394871e-01,7.101722981827877090e-01,7.180158428389940006e-01,7.251364064050580538e-01,7.315268190770534140e-01,7.371806462511113489e-01,7.420921950025219926e-01,7.462565198180269865e-01,7.496694275755315662e-01,7.523274817662238823e-01,7.542280059548476245e-01,7.553690864746450684e-01,7.557495743542583799e-01
-7.761464642917568213e-01,-7.757557074425451837e-01,-7.745838303539345215e-01,-7.726320130068171643e-01,-7.699022207158132680e-01,-7.663972021503651089e-01,-7.621204865670606621e-01,-7.570763802559705713e-01,-7.512699622045794223e-01,-7.447070789836760518e-01,-7.373943388603522164e-01,-7.293391051440373252e-01,-7.205494887722712072e-01,-7.110343401436761690e-01,-7.008032402063566479e-01,-6.898664908106961757e-01,-6.782351043362677689e-01,-6.659207926033007263e-01,-6.529359550798705669e-01,-6.392936663966860555e-01,-6.250076631820434825e-01,-6.100923302302078133e-01,-5.945626860171425720e-01,-5.784343675781788985e-01,-5.617236147628457132e-01,-5.444472538827183072e-01,-5.266226807687485190e-01,-5.082678432551378522e-01,-4.894012231073893160e-01,-4.700418174127369841e-01,-4.502091194516887884e-01,-4.299230990699455801e-01,-4.092041825704595959e-01,-3.880732321458782996e-01,-3.665515248720855324e-01,-3.446607312839887194e-01,-3.224228935551283204e-01,-2.998604033030760618e-01,-2.769959790429757374e-01,-2.538526433119226988e-01,-2.304536994872219136e-01,-2.068227083218608930e-01,-1.829834642208302553e-01,-1.589599712821731237e-01,-1.347764191268948086e-01,-1.104571585420633939e-01,-8.602667696163267264e-02,-6.150957380967057853e-02,-3.693053573082544228e-02,-1.231431173296701140e-02,1.231431173296718314e-02,3.693053573082561575e-02,6.150957380967074506e-02,8.602667696163267264e-02,1.104571585420635604e-01,1.347764191268948086e-01,1.589599712821732902e-01,1.829834642208302553e-01,2.068227083218610873e-01,2.304536994872219136e-01,2.538526433119228654e-01,2.769959790429757374e-01,2.998604033030762284e-01,3.224228935551283204e-01,3.446607312839889414e-01,3.665515248720855324e-01,3.880732321458785772e-01,4.092041825704597624e-01,4.299230990699455801e-01,4.502091194516887884e-01,4.700418174127371507e-01,4.894012231073894825e-01,5.082678432551378522e-01,5.266226807687485190e-01,5.444472538827185293e-01,5.617236147628458243e-01,5.784343675781788985e-01,5.945626860171425720e-01,6.100923302302079243e-01,6.250076631820435935e-01,6.392936663966860555e-01,6.529359550798707890e-01,6.659207926033008373e-01,6.782351043362677689e-01,6.898664908106961757e-01,7.008032402063567590e-01,7.110343401436762800e-01,7.205494887722712072e-01,7.293391051440373252e-01,7.373943388603522164e-01,7.447070789836760518e-01,7.512699622045794223e-01,7.570763802559705713e-01,7.621204865670606621e-01,7.663972021503652199e-01,7.699022207158132680e-01,7.726320130068171643e-01,7.745838303539345215e-01,7.757557074425451837e-01,7.761464642917568213e-01
-7.957618405308322096e-01,-7.953612081710462745e-01,-7.941597144945149456e-01,-7.921585693035239073e-01,-7.893597875816509291e-01,-7.857661874648470546e-01,-7.813813874038137985e-01,-7.762098025205289575e-01,-7.702566401625933201e-01,-7.635278946598736960e-01,-7.560303412887197094e-01,-7.477715294498357146e-01,-7.387597750666742291e-01,-7.290041522120052075e-01,-7.185144839710946307e-01,-7.073013325506899429e-01,-6.953759886437732574e-01,-6.827504600607908758e-01,-6.694374596388055210e-01,-6.554503924407476534e-01,-6.408033422576523419e-01,-6.255110574274772572e-01,-6.095889359847743716e-01,-5.930530101561762857e-01,-5.759199302173020341e-01,-5.582069477273409186e-01,-5.399318981581953114e-01,-5.211131829356716594e-01,-5.017697509108046683e-01,-4.819210792799710208e-01,-4.615871539730031503e-01,-4.407884495290520510e-01,-4.195459084804620264e-01,-3.978809202654159938e-01,-3.758152996905842480e-01,-3.533712649654627280e-01,-3.305714153305207015e-01,-3.074387083016796307e-01,-2.839964365540423863e-01,-2.602682044681420281e-01,-2.362779043623335073e-01,-2.120496924352522072e-01,-1.876079644425715787e-01,-1.629773311325432572e-01,-1.381825934650614540e-01,-1.132487176391970413e-01,-8.820080995435285176e-02,-6.306409153034697734e-02,-3.786387291188415827e-02,-1.262552858298233126e-02,1.262552858298250646e-02,3.786387291188433174e-02,6.306409153034714388e-02,8.820080995435285176e-02,1.132487176391972217e-01,1.381825934650614540e-01,1.629773311325434515e-01,1.876079644425715787e-01,2.120496924352524015e-01,2.362779043623335073e-01,2.602682044681421947e-01,2.839964365540423863e-01,3.074387083016798528e-01,3.305714153305207015e-01,3.533712649654628946e-01,3.758152996905842480e-01,3.978809202654162713e-01,4.195459084804621930e-01,4.407884495290520510e-01,4.615871539730031503e-01,4.819210792799712428e-01,5.017697509108047793e-01,5.211131829356716594e-01,5.399318981581953114e-01,5.582069477273411406e-01,5.759199302173021451e-01,5.930530101561762857e-01,6.095889359847742606e-01,6.255110574274772572e-01,6.408033422576524529e-01,6.554503924407476534e-01,6.694374596388057430e-01,6.827504600607909868e-01,6.953759886437732574e-01,7.073013325506899429e-01,7.185144839710947418e-01,7.290041522120053186e-01,7.387597750666742291e-01,7.477715294498357146e-01,7.560303412887197094e-01,7.635278946598736960e-01,7.702566401625933201e-01,7.762098025205289575e-01,7.813813874038137985e-01,7.857661874648471656e-01,7.893597875816509291e-01,7.921585693035239073e-01,7.941597144945149456e-01,7.953612081710462745e-01,7.957618405308322096e-01
-8.145759520503357276e-01,-8.141658475828017494e-01,-8.129359471206356602e-01,-8.108874890693484883e-01,-8.080225360525576939e-01,-8.043439728350993967e-01,-7.998555034183152390e-01,-7.945616473104365474e-01,-7.884677349758230092e-01,-7.815799024676368667e-01,-7.739050852493571941e-01,-7.654510112113563913e-01,-7.562261928895696039e-01,-7.462399188940925798e-01,-7.355022445563383915e-01,-7.240239818041716013e-01,-7.118166882752128277e-01,-6.988926556792779410e-01,-6.852648974216677402e-01,-6.709471354997719184e-01,-6.559537866861809841e-01,-6.402999480122189002e-01,-6.240013815665107488e-01,-6.070744986238973961e-01,-5.895363431206713800e-01,-5.714045744927789272e-01,-5.526974498942639480e-01,-5.334338058138621275e-01,-5.136330391082531976e-01,-4.933150874710707234e-01,-4.725004093573342279e-01,-4.512099633835195411e-01,-4.294651872240083934e-01,-4.072879760251677528e-01,-3.847006603587932450e-01,-3.617259837371159525e-01,-3.383870797120142049e-01,-3.147074485814868039e-01,-2.907109337268460880e-01,-2.664216976044528895e-01,-2.418641974161725161e-01,-2.170631604830439432e-01,-1.920435593469653757e-01,-1.668305866254597147e-01,-1.414496296448456425e-01,-1.159262448773507315e-01,-9.028613220791149863e-02,-6.455510905656643150e-02,-3.875908438250367377e-02,-1.292403259593481561e-02,1.292403259593499602e-02,3.875908438250385418e-02,6.455510905656661191e-02,9.028613220791149863e-02,1.159262448773509119e-01,1.414496296448456425e-01,1.668305866254598813e-01,1.920435593469653757e-01,2.170631604830441097e-01,2.418641974161725161e-01,2.664216976044530560e-01,2.907109337268460880e-01,3.147074485814869704e-01,3.383870797120142049e-01,3.617259837371161191e-01,3.847006603587932450e-01,4.072879760251680303e-01,4.294651872240086155e-01,4.512099633835195411e-01,4.725004093573342279e-01,4.933150874710708900e-01,5.136330391082534197e-01,5.334338058138622385e-01,5.526974498942639480e-01,5.714045744927790382e-01,5.895363431206714910e-01,6.070744986238973961e-01,6.240013815665106378e-01,6.402999480122190112e-01,6.559537866861810951e-01,6.709471354997719184e-01,6.852648974216678512e-01,6.988926556792781630e-01,7.118166882752128277e-01,7.240239818041716013e-01,7.355022445563383915e-01,7.462399188940926908e-01,7.562261928895696039e-01,7.654510112113563913e-01,7.739050852493571941e-01,7.815799024676368667e-01,7.884677349758230092e-01,7.945616473104365474e-01,7.998555034183152390e-01,8.043439728350993967e-01,8.080225360525576939e-01,8.108874890693484883e-01,8.129359471206356602e-01,8.141658475828017494e-01,8.145759520503357276e-01
-8.325698546347714002e-01,-8.321506909999250023e-01,-8.308936221576355141e-01,-8.287999138696694468e-01,-8.258716743227971779e-01,-8.221118520060257673e-01,-8.175242327417221455e-01,-8.121134358736094017e-01,-8.058849096154800939e-01,-7.988449255653066183e-01,-7.910005723902737707e-01,-7.823597486890910835e-01,-7.729311550387747420e-01,-7.627242852339027879e-01,-7.517494167271695504e-01,-7.400176002808614983e-01,-7.275406488396763960e-01,-7.143311256360898032e-01,-7.004023315402443384e-01,-6.857682916671012929e-01,-6.704437412543383656e-01,-6.544441108252148087e-01,-6.377855106513419248e-01,-6.204847145310059542e-01,-6.025591428993742893e-01,-5.840268452875944094e-01,-5.649064821484457433e-01,-5.452173060668455973e-01,-5.249791423741282381e-01,-5.042123691856165157e-01,-4.829378968815871698e-01,-4.611771470522906813e-01,-4.389520309282253230e-01,-4.162849273173855891e-01,-3.931986600716996239e-01,-3.697164751053445553e-01,-3.458620169880822215e-01,-3.216593051371804957e-01,-2.971327096318975292e-01,-2.723069266748763817e-01,-2.472069537251635751e-01,-2.218580643278854903e-01,-1.962857826659322735e-01,-1.705158578592675944e-01,-1.445742380377491587e-01,-1.184870442135599472e-01,-9.228054397956449162e-02,-6.598112506006821587e-02,-3.961526874061690323e-02,-1.320952320358652690e-02,1.320952320358671252e-02,3.961526874061709058e-02,6.598112506006839628e-02,9.228054397956449162e-02,1.184870442135601276e-01,1.445742380377491587e-01,1.705158578592677887e-01,1.962857826659322735e-01,2.218580643278856845e-01,2.472069537251635751e-01,2.723069266748765482e-01,2.971327096318975292e-01,3.216593051371806622e-01,3.458620169880822215e-01,3.697164751053447773e-01,3.931986600716996239e-01,4.162849273173858666e-01,4.389520309282255450e-01,4.611771470522906813e-01,4.829378968815871698e-01,5.042123691856166268e-01,5.249791423741283491e-01,5.452173060668457083e-01,5.649064821484457433e-01,5.840268452875946315e-01,6.025591428993744003e-01,6.204847145310059542e-01,6.377855106513418137e-01,6.544441108252149197e-01,6.704437412543383656e-01,6.857682916671012929e-01,7.004023315402445604e-01,7.143311256360899142e-01,7.275406488396763960e-01,7.400176002808614983e-01,7.517494167271696615e-01,7.627242852339028989e-01,7.729311550387747420e-01,7.823597486890910835e-01,7.910005723902737707e-01,7.988449255653066183e-01,8.058849096154800939e-01,8.121134358736094017e-01,8.175242327417221455e-01,8.221118520060258783e-01,8.258716743227971779e-01,8.287999138696694468e-01,8.308936221576355141e-01,8.321506909999250023e-01,8.325698546347714002e-01
-8.497254299495143881e-01,-8.492976292096049429e-01,-8.480146577489588999e-01,-8.458778074110839817e-01,-8.428892298231376312e-01,-8.390519342294198157e-01,-8.343697844613200409e-01,-8.288474950467656921e-01,-8.224906264630928998e-01,-8.153055795381168869e-01,-8.072995890050406187e-01,-7.984807162176918993e-01,-7.888578410334242674e-01,-7.784406528718517126e-01,-7.672396409584258947e-01,-7.552660837626743451e-01,-7.425320376417383628e-01,-7.290503247006426824e-01,-7.148345198815232449e-01,-6.998989372948108967e-01,-6.842586158061348955e-01,-6.679293038934615012e-01,-6.509274437897099030e-01,-6.332701549268188179e-01,-6.149752166979288726e-01,-5.960610505550411053e-01,-5.765467014601760587e-01,-5.564518187087118539e-01,-5.357966361442088044e-01,-5.146019517846446290e-01,-4.928891068805729136e-01,-4.706799644262930071e-01,-4.479968871456678770e-01,-4.248627149747570275e-01,-4.013007420639370104e-01,-3.773346933226657263e-01,-3.529887005305110126e-01,-3.282872780384927802e-01,-3.032552980852109559e-01,-2.779179657526079650e-01,-2.523007935865895224e-01,-2.264295759080516834e-01,-2.003303628401878755e-01,-1.740294340782215510e-01,-1.475532724279820518e-01,-1.209285371399627523e-01,-9.418203706571683098e-02,-6.734070366361498416e-02,-4.043156388115087124e-02,-1.348171294109556245e-02,1.348171294109575154e-02,4.043156388115106553e-02,6.734070366361516458e-02,9.418203706571683098e-02,1.209285371399629466e-01,1.475532724279820518e-01,1.740294340782217175e-01,2.003303628401878755e-01,2.264295759080518500e-01,2.523007935865895224e-01,2.779179657526081870e-01,3.032552980852109559e-01,3.282872780384930023e-01,3.529887005305110126e-01,3.773346933226658928e-01,4.013007420639370104e-01,4.248627149747573606e-01,4.479968871456680990e-01,4.706799644262930071e-01,4.928891068805729136e-01,5.146019517846448510e-01,5.357966361442090264e-01,5.564518187087119649e-01,5.765467014601760587e-01,5.960610505550412164e-01,6.149752166979289836e-01,6.332701549268188179e-01,6.509274437897097920e-01,6.679293038934616122e-01,6.842586158061350066e-01,6.998989372948108967e-01,7.148345198815234669e-01,7.290503247006429044e-01,7.425320376417383628e-01,7.552660837626743451e-01,7.672396409584258947e-01,7.784406528718518237e-01,7.888578410334242674e-01,7.984807162176918993e-01,8.072995890050406187e-01,8.153055795381168869e-01,8.224906264630928998e-01,8.288474950467656921e-01,8.343697844613200409e-01,8.390519342294199268e-01,8.428892298231376312e-01,8.458778074110839817e-01,8.480146577489588999e-01,8.492976292096049429e-01,8.497254299495143881e-01
-8.660254037844387076e-01,-8.655893966985481747e-01,-8.642818144630537436e-01,-8.621039737024270844e-01,-8.590580673177068416e-01,-8.551471622784317939e-01,-8.503751965344634733e-01,-8.447469750508036501e-01,-8.382681649694024850e-01,-8.309452899028269002e-01,-8.227857233655352376e-01,-8.137976813493736916e-01,-8.039902140507689809e-01,-7.933731967579473743e-01,-7.819573199073565073e-01,-7.697540783193028702e-01,-7.567757596236407425e-01,-7.430354318871718045e-01,-7.285469304552091296e-01,-7.133248440205570695e-01,-6.973844999339339212e-01,-6.807419487706302119e-01,-6.634139481689383944e-01,-6.454179459566329324e-01,-6.267720625824856340e-01,-6.074950728705106329e-01,-5.876063871153072160e-01,-5.671260315375392658e-01,-5.460746281192282447e-01,-5.244733738391653688e-01,-5.023440193293505773e-01,-4.797088469739502203e-01,-4.565906484728248227e-01,-4.330127018922191873e-01,-4.089987482257233520e-01,-3.845729674891033012e-01,-3.597599543730765070e-01,-3.345846934785413618e-01,-3.090725341592034936e-01,-2.832491649969239300e-01,-2.571405879354963231e-01,-2.307730920988917411e-01,-2.041732273203411552e-01,-1.773677774089021664e-01,-1.503837331804353250e-01,-1.232482652801387829e-01,-9.598869682401342529e-02,-6.863247588679950717e-02,-4.120714786409344216e-02,-1.374032773646878709e-02,1.374032773646897791e-02,4.120714786409363645e-02,6.863247588679970146e-02,9.598869682401342529e-02,1.232482652801389772e-01,1.503837331804353250e-01,1.773677774089023607e-01,2.041732273203411552e-01,2.307730920988919354e-01,2.571405879354963231e-01,2.832491649969241521e-01,3.090725341592034936e-01,3.345846934785415283e-01,3.597599543730765070e-01,3.845729674891035232e-01,4.089987482257233520e-01,4.330127018922195203e-01,4.565906484728250447e-01,4.797088469739502203e-01,5.023440193293505773e-01,5.244733738391654798e-01,5.460746281192284668e-01,5.671260315375393768e-01,5.876063871153072160e-01,6.074950728705107439e-01,6.267720625824857450e-01,6.454179459566329324e-01,6.634139481689382833e-01,6.807419487706303229e-01,6.973844999339340323e-01,7.133248440205570695e-01,7.285469304552093517e-01,7.430354318871720265e-01,7.567757596236407425e-01,7.697540783193028702e-01,7.819573199073566183e-01,7.933731967579474853e-01,8.039902140507689809e-01,8.137976813493736916e-01,8.227857233655352376e-01,8.309452899028269002e-01,8.382681649694024850e-01,8.447469750508036501e-01,8.503751965344634733e-01,8.551471622784319049e-01,8.590580673177068416e-01,8.621039737024270844e-01,8.642818144630537436e-01,8.655893966985481747e-01,8.660254037844387076e-01
-8.814533634475820723e-01,-8.810095890378872863e-01,-8.796787126520164701e-01,-8.774620743696763814e-01,-8.743619061577212470e-01,-8.703813296227502772e-01,-8.655243528679154030e-01,-8.597958664571002663e-01,-8.532016384905375395e-01,-8.457483087968208357e-01,-8.374433822471600841e-01,-8.282952211986122082e-01,-8.183130370738966874e-01,-8.075068810862737756e-01,-7.958876341188242387e-01,-7.834669957683229047e-01,-7.702574725647363119e-01,-7.562723653782071898e-01,-7.415257560262055181e-01,-7.260324930943323762e-01,-7.098081769850521638e-01,-6.928691442094109254e-01,-6.752324509375531303e-01,-6.569158558246052104e-01,-6.379378021292145817e-01,-6.183173991427517446e-01,-5.980744029478737289e-01,-5.772291965258236068e-01,-5.558027692324957192e-01,-5.338166956639340821e-01,-5.112931139325426200e-01,-4.882547033758823374e-01,-4.647246617205015862e-01,-4.407266817237908696e-01,-4.162849273173856446e-01,-3.914240092761339107e-01,-3.661689604371337614e-01,-3.405452104937869984e-01,-3.145785603902545025e-01,-2.882951563420915742e-01,-2.617214635092263708e-01,-2.348842393477855728e-01,-2.078105066676062262e-01,-1.805275264225547349e-01,-1.530627702610590779e-01,-1.254438928644857898e-01,-9.769870410122163951e-02,-6.985514102449189022e-02,-4.194123974211722006e-02,-1.398510718652909435e-02,1.398510718652928864e-02,4.194123974211741435e-02,6.985514102449208451e-02,9.769870410122163951e-02,1.254438928644859841e-01,1.530627702610590779e-01,1.805275264225549292e-01,2.078105066676062262e-01,2.348842393477857671e-01,2.617214635092263708e-01,2.882951563420917407e-01,3.145785603902545025e-01,3.405452104937871649e-01,3.661689604371337614e-01,3.914240092761340772e-01,4.162849273173856446e-01,4.407266817237912582e-01,4.647246617205017527e-01,4.882547033758823374e-01,5.112931139325426200e-01,5.338166956639343042e-01,5.558027692324959412e-01,5.772291965258237179e-01,5.980744029478737289e-01,6.183173991427519667e-01,6.379378021292146927e-01,6.569158558246052104e-01,6.752324509375530193e-01,6.928691442094110364e-01,7.098081769850522749e-01,7.260324930943323762e-01,7.415257560262056291e-01,7.562723653782073008e-01,7.702574725647363119e-01,7.834669957683229047e-01,7.958876341188243497e-01,8.075068810862738866e-01,8.183130370738966874e-01,8.282952211986122082e-01,8.374433822471600841e-01,8.457483087968208357e-01,8.532016384905375395e-01,8.597958664571002663e-01,8.655243528679154030e-01,8.703813296227503882e-01,8.743619061577212470e-01,8.774620743696763814e-01,8.796787126520164701e-01,8.810095890378872863e-01,8.814533634475820723e-01
-8.959937742913359759e-01,-8.955426794010502567e-01,-8.941898489445101461e-01,-8.919366451073106328e-01,-8.887853366747200390e-01,-8.847390967472048562e-01,-8.798019995453871811e-01,-8.739790163076494034e-01,-8.672760102845186170e-01,-8.596997308348707234e-01,-8.512578066298979174e-01,-8.419587379716830799e-01,-8.318118882341170028e-01,-8.208274744347737739e-01,-8.090165569472401730e-01,-7.963910283642579024e-01,-7.829636015228894630e-01,-7.687477967037700255e-01,-7.537579280173303253e-01,-7.380090889907008345e-01,-7.215171373698092694e-01,-7.042986791519753043e-01,-6.863710518650777415e-01,-6.677523071101348906e-01,-6.484611923848713211e-01,-6.285171322065777888e-01,-6.079402085532681355e-01,-5.867511406428302934e-01,-5.649712640705294442e-01,-5.426225093258730814e-01,-5.197273797104660087e-01,-4.963089286790939858e-01,-4.723907366268485508e-01,-4.479968871456678214e-01,-4.231519427742016504e-01,-3.978809202654159383e-01,-3.722092653968445686e-01,-3.461628273488467911e-01,-3.197678326766753010e-01,-2.930508589025567212e-01,-2.660388077543810459e-01,-2.387588780779406061e-01,-2.112385384499993746e-01,-1.835054995197629157e-01,-1.555876861066054218e-01,-1.275132090821417541e-01,-9.931033706496446289e-02,-7.100746795653936627e-02,-4.263310034692734118e-02,-1.421580481911934035e-02,1.421580481911953985e-02,4.263310034692754241e-02,7.100746795653956056e-02,9.931033706496446289e-02,1.275132090821419484e-01,1.555876861066054218e-01,1.835054995197631378e-01,2.112385384499993746e-01,2.387588780779408004e-01,2.660388077543810459e-01,2.930508589025568877e-01,3.197678326766753010e-01,3.461628273488470131e-01,3.722092653968445686e-01,3.978809202654161603e-01,4.231519427742016504e-01,4.479968871456682100e-01,4.723907366268487173e-01,4.963089286790939858e-01,5.197273797104660087e-01,5.426225093258733034e-01,5.649712640705296662e-01,5.867511406428304044e-01,6.079402085532681355e-01,6.285171322065780108e-01,6.484611923848714321e-01,6.677523071101348906e-01,6.863710518650776304e-01,7.042986791519754153e-01,7.215171373698093804e-01,7.380090889907008345e-01,7.537579280173304364e-01,7.687477967037701365e-01,7.829636015228894630e-01,7.963910283642579024e-01,8.090165569472402840e-01,8.208274744347738849e-01,8.318118882341170028e-01,8.419587379716830799e-01,8.512578066298979174e-01,8.596997308348707234e-01,8.672760102845186170e-01,8.739790163076494034e-01,8.798019995453871811e-01,8.847390967472049672e-01,8.887853366747200390e-01,8.919366451073106328e-01,8.941898489445101461e-01,8.955426794010502567e-01,8.959937742913359759e-01
-9.096319953545184411e-01,-9.091740341979586137e-01,-9.078006118563445304e-01,-9.055131112495535817e-01,-9.023138356967942419e-01,-8.982060065973567209e-01,-8.931937601869387455e-01,-8.872821433728055318e-01,-8.804771086519824763e-01,-8.727855081175955876e-01,-8.642150865593938303e-01,-8.547744736654026010e-01,-8.444731753325600554e-01,-8.333215640950834002e-01,-8.213308686802072156e-01,-8.085131627018066203e-01,-7.948813525032913940e-01,-7.804491641620124875e-01,-7.652311296682651198e-01,-7.492425722928073295e-01,-7.324995911576236418e-01,-7.150190450254760854e-01,-6.968185353245568425e-01,-6.779163884253438521e-01,-6.583316371874979867e-01,-6.380840017953877119e-01,-6.171938699015342422e-01,-5.956822760979739728e-01,-5.735708807362075445e-01,-5.508819481170613708e-01,-5.276383240724243917e-01,-5.038634129614321111e-01,-4.795811541042603321e-01,-4.548159976772590540e-01,-4.295928800936982817e-01,-4.039371988949121417e-01,-3.778747871771291345e-01,-3.514318875797327046e-01,-3.246351258611491764e-01,-2.975114840889645507e-01,-2.700882734712711786e-01,-2.423931068565945979e-01,-2.144538709300975177e-01,-1.862986981340498394e-01,-1.579559383408457862e-01,-1.294541303070838867e-01,-1.008219729374596613e-01,-7.208829638739991386e-02,-4.328203303354127840e-02,-1.443218834127890822e-02,1.443218834127911118e-02,4.328203303354147963e-02,7.208829638740012202e-02,1.008219729374596613e-01,1.294541303070840810e-01,1.579559383408457862e-01,1.862986981340500336e-01,2.144538709300975177e-01,2.423931068565948199e-01,2.700882734712711786e-01,2.975114840889647727e-01,3.246351258611491764e-01,3.514318875797329267e-01,3.778747871771291345e-01,4.039371988949123082e-01,4.295928800936982817e-01,4.548159976772594426e-01,4.795811541042604986e-01,5.038634129614321111e-01,5.276383240724243917e-01,5.508819481170614818e-01,5.735708807362076556e-01,5.956822760979740838e-01,6.171938699015342422e-01,6.380840017953878229e-01,6.583316371874980977e-01,6.779163884253438521e-01,6.968185353245567315e-01,7.150190450254761965e-01,7.324995911576237528e-01,7.492425722928073295e-01,7.652311296682653419e-01,7.804491641620125986e-01,7.948813525032913940e-01,8.085131627018066203e-01,8.213308686802073266e-01,8.333215640950835112e-01,8.444731753325600554e-01,8.547744736654026010e-01,8.642150865593938303e-01,8.727855081175955876e-01,8.804771086519824763e-01,8.872821433728055318e-01,8.931937601869387455e-01,8.982060065973568319e-01,9.023138356967942419e-01,9.055131112495535817e-01,9.078006118563445304e-01,9.091740341979586137e-01,9.096319953545184411e-01
-9.223542941045814736e-01,-9.218899278098126038e-01,-9.204972965030022714e-01,-9.181778024458280285e-01,-9.149337811721904856e-01,-9.107684991365280203e-01,-9.056861504247751826e-01,-8.996918525312719295e-01,-8.927916412058825024e-01,-8.849924643765055832e-01,-8.763021751531004933e-01,-8.667295239202705837e-01,-8.562841495263689984e-01,-8.449765695779936081e-01,-8.328181698496498475e-01,-8.198211928192409292e-01,-8.059987253409297558e-01,-7.913646854677865994e-01,-7.759338084374893807e-01,-7.597216318351882602e-01,-7.427444799484740345e-01,-7.250194473302055131e-01,-7.065643815857421961e-01,-6.873978654019200496e-01,-6.675391978358602429e-01,-6.470083748824544401e-01,-6.258260693400935493e-01,-6.040136099949114934e-01,-5.815929601445057884e-01,-5.585866954827589659e-01,-5.350179813680274732e-01,-5.109105494975908490e-01,-4.862886740118427809e-01,-4.611771470522905703e-01,-4.356012537979697119e-01,-4.095867470054112558e-01,-3.831598210778004443e-01,-3.563470856894313532e-01,-3.291755389920221764e-01,-3.016725404298634672e-01,-2.738657831911783802e-01,-2.457832663234278681e-01,-2.174532665406452847e-01,-1.889043097511801661e-01,-1.601651423345284986e-01,-1.312647021961635130e-01,-1.022320896295195319e-01,-7.309653801446158727e-02,-4.388738438175127793e-02,-1.463403987314302983e-02,1.463403987314323453e-02,4.388738438175147916e-02,7.309653801446179544e-02,1.022320896295195319e-01,1.312647021961637350e-01,1.601651423345284986e-01,1.889043097511803881e-01,2.174532665406452847e-01,2.457832663234280623e-01,2.738657831911783802e-01,3.016725404298636337e-01,3.291755389920221764e-01,3.563470856894315753e-01,3.831598210778004443e-01,4.095867470054114778e-01,4.356012537979697119e-01,4.611771470522909588e-01,4.862886740118430029e-01,5.109105494975908490e-01,5.350179813680274732e-01,5.585866954827590769e-01,5.815929601445060104e-01,6.040136099949116044e-01,6.258260693400935493e-01,6.470083748824546621e-01,6.675391978358602429e-01,6.873978654019200496e-01,7.065643815857420851e-01,7.250194473302056242e-01,7.427444799484741456e-01,7.597216318351882602e-01,7.759338084374896027e-01,7.913646854677868214e-01,8.059987253409297558e-01,8.198211928192409292e-01,8.328181698496499585e-01,8.449765695779937191e-01,8.562841495263689984e-01,8.667295239202705837e-01,8.763021751531004933e-01,8.849924643765055832e-01,8.927916412058825024e-01,8.996918525312719295e-01,9.056861504247751826e-01,9.107684991365281313e-01,9.149337811721904856e-01,9.181778024458280285e-01,9.204972965030022714e-01,9.218899278098126038e-01,9.223542941045814736e-01
-9.341478602651067664e-01,-9.336775564096249092e-01,-9.322671183992962129e-01,-9.299179664256389533e-01,-9.266324658855619179e-01,-9.224139249996087253e-01,-9.172665914808613152e-01,-9.111956482578520422e-01,-9.042072082557949253e-01,-8.963083082413872971e-01,-8.875069017373824476e-01,-8.778118510140666686e-01,-8.672329181657041364e-01,-8.557807552809354457e-01,-8.434668937170272107e-01,-8.303037324887729831e-01,-8.163045257837360236e-01,-8.014833696164066490e-01,-7.858551876347095178e-01,-7.694357160931563078e-01,-7.522414880077697985e-01,-7.342898165087401452e-01,-7.155987774075686092e-01,-6.961871909962585869e-01,-6.760746030968765030e-01,-6.552812653805659693e-01,-6.338281149758315802e-01,-6.117367533866253648e-01,-5.890294247414628037e-01,-5.657289933954720018e-01,-5.418589209079253122e-01,-5.174432424184381984e-01,-4.925065424456211427e-01,-4.670739301325532167e-01,-4.411710139640037664e-01,-4.148238759808578480e-01,-3.880590455177136411e-01,-3.609034724900897495e-01,-3.333845002581458106e-01,-3.055298380942357284e-01,-2.773675332820203510e-01,-2.489259428752287895e-01,-2.202337051445107385e-01,-1.913197107411237496e-01,-1.622130736064980872e-01,-1.329431016569639634e-01,-1.035392672731656333e-01,-7.403117762387090295e-02,-4.444854485406312533e-02,-1.482115616732933815e-02,1.482115616732954631e-02,4.444854485406333350e-02,7.403117762387111112e-02,1.035392672731656333e-01,1.329431016569641577e-01,1.622130736064980872e-01,1.913197107411239439e-01,2.202337051445107385e-01,2.489259428752289838e-01,2.773675332820203510e-01,3.055298380942359504e-01,3.333845002581458106e-01,3.609034724900899160e-01,3.880590455177136411e-01,4.148238759808580145e-01,4.411710139640037664e-01,4.670739301325536053e-01,4.925065424456213647e-01,5.174432424184381984e-01,5.418589209079253122e-01,5.657289933954722239e-01,5.890294247414630258e-01,6.117367533866254758e-01,6.338281149758315802e-01,6.552812653805661913e-01,6.760746030968766140e-01,6.961871909962585869e-01,7.155987774075684982e-01,7.342898165087402562e-01,7.522414880077699095e-01,7.694357160931563078e-01,7.858551876347097398e-01,8.014833696164067600e-01,8.163045257837360236e-01,8.303037324887729831e-01,8.434668937170273217e-01,8.557807552809355567e-01,8.672329181657041364e-01,8.778118510140666686e-01,8.875069017373824476e-01,8.963083082413872971e-01,9.042072082557949253e-01,9.111956482578520422e-01,9.172665914808613152e-01,9.224139249996088363e-01,9.266324658855619179e-01,9.299179664256389533e-01,9.322671183992962129e-01,9.336775564096249092e-01,9.341478602651067664e-01
